FANN_FLO_2.1
num_layers=3
learning_rate=0.700000
connection_rate=1.000000
network_type=0
learning_momentum=0.000000
training_algorithm=2
train_error_function=1
train_stop_function=0
cascade_output_change_fraction=0.010000
quickprop_decay=-0.000100
quickprop_mu=1.750000
rprop_increase_factor=1.200000
rprop_decrease_factor=0.500000
rprop_delta_min=0.000000
rprop_delta_max=50.000000
rprop_delta_zero=0.100000
cascade_output_stagnation_epochs=12
cascade_candidate_change_fraction=0.010000
cascade_candidate_stagnation_epochs=12
cascade_max_out_epochs=150
cascade_min_out_epochs=50
cascade_max_cand_epochs=150
cascade_min_cand_epochs=50
cascade_num_candidate_groups=2
bit_fail_limit=3.49999994039535522461e-01
cascade_candidate_limit=1.00000000000000000000e+03
cascade_weight_multiplier=4.00000005960464477539e-01
cascade_activation_functions_count=10
cascade_activation_functions=3 5 7 8 10 11 14 15 16 17 
cascade_activation_steepnesses_count=4
cascade_activation_steepnesses=2.50000000000000000000e-01 5.00000000000000000000e-01 7.50000000000000000000e-01 1.00000000000000000000e+00 
layer_sizes=401 101 5 
scale_included=0
neurons (num_inputs, activation_function, activation_steepness)=(0, 0, 0.00000000000000000000e+00) (0, 0, 0.00000000000000000000e+00) (0, 0, 0.00000000000000000000e+00) (0, 0, 0.00000000000000000000e+00) (0, 0, 0.00000000000000000000e+00) (0, 0, 0.00000000000000000000e+00) (0, 0, 0.00000000000000000000e+00) (0, 0, 0.00000000000000000000e+00) (0, 0, 0.00000000000000000000e+00) (0, 0, 0.00000000000000000000e+00) (0, 0, 0.00000000000000000000e+00) (0, 0, 0.00000000000000000000e+00) (0, 0, 0.00000000000000000000e+00) (0, 0, 0.00000000000000000000e+00) (0, 0, 0.00000000000000000000e+00) (0, 0, 0.00000000000000000000e+00) (0, 0, 0.00000000000000000000e+00) (0, 0, 0.00000000000000000000e+00) (0, 0, 0.00000000000000000000e+00) (0, 0, 0.00000000000000000000e+00) (0, 0, 0.00000000000000000000e+00) (0, 0, 0.00000000000000000000e+00) (0, 0, 0.00000000000000000000e+00) (0, 0, 0.00000000000000000000e+00) (0, 0, 0.00000000000000000000e+00) (0, 0, 0.00000000000000000000e+00) (0, 0, 0.00000000000000000000e+00) (0, 0, 0.00000000000000000000e+00) (0, 0, 0.00000000000000000000e+00) (0, 0, 0.00000000000000000000e+00) (0, 0, 0.00000000000000000000e+00) (0, 0, 0.00000000000000000000e+00) (0, 0, 0.00000000000000000000e+00) (0, 0, 0.00000000000000000000e+00) (0, 0, 0.00000000000000000000e+00) (0, 0, 0.00000000000000000000e+00) (0, 0, 0.00000000000000000000e+00) (0, 0, 0.00000000000000000000e+00) (0, 0, 0.00000000000000000000e+00) (0, 0, 0.00000000000000000000e+00) (0, 0, 0.00000000000000000000e+00) (0, 0, 0.00000000000000000000e+00) (0, 0, 0.00000000000000000000e+00) (0, 0, 0.00000000000000000000e+00) (0, 0, 0.00000000000000000000e+00) (0, 0, 0.00000000000000000000e+00) (0, 0, 0.00000000000000000000e+00) (0, 0, 0.00000000000000000000e+00) (0, 0, 0.00000000000000000000e+00) (0, 0, 0.00000000000000000000e+00) (0, 0, 0.00000000000000000000e+00) (0, 0, 0.00000000000000000000e+00) (0, 0, 0.00000000000000000000e+00) (0, 0, 0.00000000000000000000e+00) (0, 0, 0.00000000000000000000e+00) (0, 0, 0.00000000000000000000e+00) (0, 0, 0.00000000000000000000e+00) (0, 0, 0.00000000000000000000e+00) (0, 0, 0.00000000000000000000e+00) (0, 0, 0.00000000000000000000e+00) (0, 0, 0.00000000000000000000e+00) (0, 0, 0.00000000000000000000e+00) (0, 0, 0.00000000000000000000e+00) (0, 0, 0.00000000000000000000e+00) (0, 0, 0.00000000000000000000e+00) (0, 0, 0.00000000000000000000e+00) (0, 0, 0.00000000000000000000e+00) (0, 0, 0.00000000000000000000e+00) (0, 0, 0.00000000000000000000e+00) (0, 0, 0.00000000000000000000e+00) (0, 0, 0.00000000000000000000e+00) (0, 0, 0.00000000000000000000e+00) (0, 0, 0.00000000000000000000e+00) (0, 0, 0.00000000000000000000e+00) (0, 0, 0.00000000000000000000e+00) (0, 0, 0.00000000000000000000e+00) (0, 0, 0.00000000000000000000e+00) (0, 0, 0.00000000000000000000e+00) (0, 0, 0.00000000000000000000e+00) (0, 0, 0.00000000000000000000e+00) (0, 0, 0.00000000000000000000e+00) (0, 0, 0.00000000000000000000e+00) (0, 0, 0.00000000000000000000e+00) (0, 0, 0.00000000000000000000e+00) (0, 0, 0.00000000000000000000e+00) (0, 0, 0.00000000000000000000e+00) (0, 0, 0.00000000000000000000e+00) (0, 0, 0.00000000000000000000e+00) (0, 0, 0.00000000000000000000e+00) (0, 0, 0.00000000000000000000e+00) (0, 0, 0.00000000000000000000e+00) (0, 0, 0.00000000000000000000e+00) (0, 0, 0.00000000000000000000e+00) (0, 0, 0.00000000000000000000e+00) (0, 0, 0.00000000000000000000e+00) (0, 0, 0.00000000000000000000e+00) (0, 0, 0.00000000000000000000e+00) (0, 0, 0.00000000000000000000e+00) (0, 0, 0.00000000000000000000e+00) (0, 0, 0.00000000000000000000e+00) (0, 0, 0.00000000000000000000e+00) (0, 0, 0.00000000000000000000e+00) (0, 0, 0.00000000000000000000e+00) (0, 0, 0.00000000000000000000e+00) (0, 0, 0.00000000000000000000e+00) (0, 0, 0.00000000000000000000e+00) (0, 0, 0.00000000000000000000e+00) (0, 0, 0.00000000000000000000e+00) (0, 0, 0.00000000000000000000e+00) (0, 0, 0.00000000000000000000e+00) (0, 0, 0.00000000000000000000e+00) (0, 0, 0.00000000000000000000e+00) (0, 0, 0.00000000000000000000e+00) (0, 0, 0.00000000000000000000e+00) (0, 0, 0.00000000000000000000e+00) (0, 0, 0.00000000000000000000e+00) (0, 0, 0.00000000000000000000e+00) (0, 0, 0.00000000000000000000e+00) (0, 0, 0.00000000000000000000e+00) (0, 0, 0.00000000000000000000e+00) (0, 0, 0.00000000000000000000e+00) (0, 0, 0.00000000000000000000e+00) (0, 0, 0.00000000000000000000e+00) (0, 0, 0.00000000000000000000e+00) (0, 0, 0.00000000000000000000e+00) (0, 0, 0.00000000000000000000e+00) (0, 0, 0.00000000000000000000e+00) (0, 0, 0.00000000000000000000e+00) (0, 0, 0.00000000000000000000e+00) (0, 0, 0.00000000000000000000e+00) (0, 0, 0.00000000000000000000e+00) (0, 0, 0.00000000000000000000e+00) (0, 0, 0.00000000000000000000e+00) (0, 0, 0.00000000000000000000e+00) (0, 0, 0.00000000000000000000e+00) (0, 0, 0.00000000000000000000e+00) (0, 0, 0.00000000000000000000e+00) (0, 0, 0.00000000000000000000e+00) (0, 0, 0.00000000000000000000e+00) (0, 0, 0.00000000000000000000e+00) (0, 0, 0.00000000000000000000e+00) (0, 0, 0.00000000000000000000e+00) (0, 0, 0.00000000000000000000e+00) (0, 0, 0.00000000000000000000e+00) (0, 0, 0.00000000000000000000e+00) (0, 0, 0.00000000000000000000e+00) (0, 0, 0.00000000000000000000e+00) (0, 0, 0.00000000000000000000e+00) (0, 0, 0.00000000000000000000e+00) (0, 0, 0.00000000000000000000e+00) (0, 0, 0.00000000000000000000e+00) (0, 0, 0.00000000000000000000e+00) (0, 0, 0.00000000000000000000e+00) (0, 0, 0.00000000000000000000e+00) (0, 0, 0.00000000000000000000e+00) (0, 0, 0.00000000000000000000e+00) (0, 0, 0.00000000000000000000e+00) (0, 0, 0.00000000000000000000e+00) (0, 0, 0.00000000000000000000e+00) (0, 0, 0.00000000000000000000e+00) (0, 0, 0.00000000000000000000e+00) (0, 0, 0.00000000000000000000e+00) (0, 0, 0.00000000000000000000e+00) (0, 0, 0.00000000000000000000e+00) (0, 0, 0.00000000000000000000e+00) (0, 0, 0.00000000000000000000e+00) (0, 0, 0.00000000000000000000e+00) (0, 0, 0.00000000000000000000e+00) (0, 0, 0.00000000000000000000e+00) (0, 0, 0.00000000000000000000e+00) (0, 0, 0.00000000000000000000e+00) (0, 0, 0.00000000000000000000e+00) (0, 0, 0.00000000000000000000e+00) (0, 0, 0.00000000000000000000e+00) (0, 0, 0.00000000000000000000e+00) (0, 0, 0.00000000000000000000e+00) (0, 0, 0.00000000000000000000e+00) (0, 0, 0.00000000000000000000e+00) (0, 0, 0.00000000000000000000e+00) (0, 0, 0.00000000000000000000e+00) (0, 0, 0.00000000000000000000e+00) (0, 0, 0.00000000000000000000e+00) (0, 0, 0.00000000000000000000e+00) (0, 0, 0.00000000000000000000e+00) (0, 0, 0.00000000000000000000e+00) (0, 0, 0.00000000000000000000e+00) (0, 0, 0.00000000000000000000e+00) (0, 0, 0.00000000000000000000e+00) (0, 0, 0.00000000000000000000e+00) (0, 0, 0.00000000000000000000e+00) (0, 0, 0.00000000000000000000e+00) (0, 0, 0.00000000000000000000e+00) (0, 0, 0.00000000000000000000e+00) (0, 0, 0.00000000000000000000e+00) (0, 0, 0.00000000000000000000e+00) (0, 0, 0.00000000000000000000e+00) (0, 0, 0.00000000000000000000e+00) (0, 0, 0.00000000000000000000e+00) (0, 0, 0.00000000000000000000e+00) (0, 0, 0.00000000000000000000e+00) (0, 0, 0.00000000000000000000e+00) (0, 0, 0.00000000000000000000e+00) (0, 0, 0.00000000000000000000e+00) (0, 0, 0.00000000000000000000e+00) (0, 0, 0.00000000000000000000e+00) (0, 0, 0.00000000000000000000e+00) (0, 0, 0.00000000000000000000e+00) (0, 0, 0.00000000000000000000e+00) (0, 0, 0.00000000000000000000e+00) (0, 0, 0.00000000000000000000e+00) (0, 0, 0.00000000000000000000e+00) (0, 0, 0.00000000000000000000e+00) (0, 0, 0.00000000000000000000e+00) (0, 0, 0.00000000000000000000e+00) (0, 0, 0.00000000000000000000e+00) (0, 0, 0.00000000000000000000e+00) (0, 0, 0.00000000000000000000e+00) (0, 0, 0.00000000000000000000e+00) (0, 0, 0.00000000000000000000e+00) (0, 0, 0.00000000000000000000e+00) (0, 0, 0.00000000000000000000e+00) (0, 0, 0.00000000000000000000e+00) (0, 0, 0.00000000000000000000e+00) (0, 0, 0.00000000000000000000e+00) (0, 0, 0.00000000000000000000e+00) (0, 0, 0.00000000000000000000e+00) (0, 0, 0.00000000000000000000e+00) (0, 0, 0.00000000000000000000e+00) (0, 0, 0.00000000000000000000e+00) (0, 0, 0.00000000000000000000e+00) (0, 0, 0.00000000000000000000e+00) (0, 0, 0.00000000000000000000e+00) (0, 0, 0.00000000000000000000e+00) (0, 0, 0.00000000000000000000e+00) (0, 0, 0.00000000000000000000e+00) (0, 0, 0.00000000000000000000e+00) (0, 0, 0.00000000000000000000e+00) (0, 0, 0.00000000000000000000e+00) (0, 0, 0.00000000000000000000e+00) (0, 0, 0.00000000000000000000e+00) (0, 0, 0.00000000000000000000e+00) (0, 0, 0.00000000000000000000e+00) (0, 0, 0.00000000000000000000e+00) (0, 0, 0.00000000000000000000e+00) (0, 0, 0.00000000000000000000e+00) (0, 0, 0.00000000000000000000e+00) (0, 0, 0.00000000000000000000e+00) (0, 0, 0.00000000000000000000e+00) (0, 0, 0.00000000000000000000e+00) (0, 0, 0.00000000000000000000e+00) (0, 0, 0.00000000000000000000e+00) (0, 0, 0.00000000000000000000e+00) (0, 0, 0.00000000000000000000e+00) (0, 0, 0.00000000000000000000e+00) (0, 0, 0.00000000000000000000e+00) (0, 0, 0.00000000000000000000e+00) (0, 0, 0.00000000000000000000e+00) (0, 0, 0.00000000000000000000e+00) (0, 0, 0.00000000000000000000e+00) (0, 0, 0.00000000000000000000e+00) (0, 0, 0.00000000000000000000e+00) (0, 0, 0.00000000000000000000e+00) (0, 0, 0.00000000000000000000e+00) (0, 0, 0.00000000000000000000e+00) (0, 0, 0.00000000000000000000e+00) (0, 0, 0.00000000000000000000e+00) (0, 0, 0.00000000000000000000e+00) (0, 0, 0.00000000000000000000e+00) (0, 0, 0.00000000000000000000e+00) (0, 0, 0.00000000000000000000e+00) (0, 0, 0.00000000000000000000e+00) (0, 0, 0.00000000000000000000e+00) (0, 0, 0.00000000000000000000e+00) (0, 0, 0.00000000000000000000e+00) (0, 0, 0.00000000000000000000e+00) (0, 0, 0.00000000000000000000e+00) (0, 0, 0.00000000000000000000e+00) (0, 0, 0.00000000000000000000e+00) (0, 0, 0.00000000000000000000e+00) (0, 0, 0.00000000000000000000e+00) (0, 0, 0.00000000000000000000e+00) (0, 0, 0.00000000000000000000e+00) (0, 0, 0.00000000000000000000e+00) (0, 0, 0.00000000000000000000e+00) (0, 0, 0.00000000000000000000e+00) (0, 0, 0.00000000000000000000e+00) (0, 0, 0.00000000000000000000e+00) (0, 0, 0.00000000000000000000e+00) (0, 0, 0.00000000000000000000e+00) (0, 0, 0.00000000000000000000e+00) (0, 0, 0.00000000000000000000e+00) (0, 0, 0.00000000000000000000e+00) (0, 0, 0.00000000000000000000e+00) (0, 0, 0.00000000000000000000e+00) (0, 0, 0.00000000000000000000e+00) (0, 0, 0.00000000000000000000e+00) (0, 0, 0.00000000000000000000e+00) (0, 0, 0.00000000000000000000e+00) (0, 0, 0.00000000000000000000e+00) (0, 0, 0.00000000000000000000e+00) (0, 0, 0.00000000000000000000e+00) (0, 0, 0.00000000000000000000e+00) (0, 0, 0.00000000000000000000e+00) (0, 0, 0.00000000000000000000e+00) (0, 0, 0.00000000000000000000e+00) (0, 0, 0.00000000000000000000e+00) (0, 0, 0.00000000000000000000e+00) (0, 0, 0.00000000000000000000e+00) (0, 0, 0.00000000000000000000e+00) (0, 0, 0.00000000000000000000e+00) (0, 0, 0.00000000000000000000e+00) (0, 0, 0.00000000000000000000e+00) (0, 0, 0.00000000000000000000e+00) (0, 0, 0.00000000000000000000e+00) (0, 0, 0.00000000000000000000e+00) (0, 0, 0.00000000000000000000e+00) (0, 0, 0.00000000000000000000e+00) (0, 0, 0.00000000000000000000e+00) (0, 0, 0.00000000000000000000e+00) (0, 0, 0.00000000000000000000e+00) (0, 0, 0.00000000000000000000e+00) (0, 0, 0.00000000000000000000e+00) (0, 0, 0.00000000000000000000e+00) (0, 0, 0.00000000000000000000e+00) (0, 0, 0.00000000000000000000e+00) (0, 0, 0.00000000000000000000e+00) (0, 0, 0.00000000000000000000e+00) (0, 0, 0.00000000000000000000e+00) (0, 0, 0.00000000000000000000e+00) (0, 0, 0.00000000000000000000e+00) (0, 0, 0.00000000000000000000e+00) (0, 0, 0.00000000000000000000e+00) (0, 0, 0.00000000000000000000e+00) (0, 0, 0.00000000000000000000e+00) (0, 0, 0.00000000000000000000e+00) (0, 0, 0.00000000000000000000e+00) (0, 0, 0.00000000000000000000e+00) (0, 0, 0.00000000000000000000e+00) (0, 0, 0.00000000000000000000e+00) (0, 0, 0.00000000000000000000e+00) (0, 0, 0.00000000000000000000e+00) (0, 0, 0.00000000000000000000e+00) (0, 0, 0.00000000000000000000e+00) (0, 0, 0.00000000000000000000e+00) (0, 0, 0.00000000000000000000e+00) (0, 0, 0.00000000000000000000e+00) (0, 0, 0.00000000000000000000e+00) (0, 0, 0.00000000000000000000e+00) (0, 0, 0.00000000000000000000e+00) (0, 0, 0.00000000000000000000e+00) (0, 0, 0.00000000000000000000e+00) (0, 0, 0.00000000000000000000e+00) (0, 0, 0.00000000000000000000e+00) (0, 0, 0.00000000000000000000e+00) (0, 0, 0.00000000000000000000e+00) (0, 0, 0.00000000000000000000e+00) (0, 0, 0.00000000000000000000e+00) (0, 0, 0.00000000000000000000e+00) (0, 0, 0.00000000000000000000e+00) (0, 0, 0.00000000000000000000e+00) (0, 0, 0.00000000000000000000e+00) (0, 0, 0.00000000000000000000e+00) (0, 0, 0.00000000000000000000e+00) (0, 0, 0.00000000000000000000e+00) (0, 0, 0.00000000000000000000e+00) (0, 0, 0.00000000000000000000e+00) (0, 0, 0.00000000000000000000e+00) (0, 0, 0.00000000000000000000e+00) (0, 0, 0.00000000000000000000e+00) (0, 0, 0.00000000000000000000e+00) (0, 0, 0.00000000000000000000e+00) (0, 0, 0.00000000000000000000e+00) (0, 0, 0.00000000000000000000e+00) (0, 0, 0.00000000000000000000e+00) (0, 0, 0.00000000000000000000e+00) (0, 0, 0.00000000000000000000e+00) (0, 0, 0.00000000000000000000e+00) (0, 0, 0.00000000000000000000e+00) (0, 0, 0.00000000000000000000e+00) (0, 0, 0.00000000000000000000e+00) (0, 0, 0.00000000000000000000e+00) (0, 0, 0.00000000000000000000e+00) (0, 0, 0.00000000000000000000e+00) (0, 0, 0.00000000000000000000e+00) (0, 0, 0.00000000000000000000e+00) (0, 0, 0.00000000000000000000e+00) (0, 0, 0.00000000000000000000e+00) (0, 0, 0.00000000000000000000e+00) (0, 0, 0.00000000000000000000e+00) (0, 0, 0.00000000000000000000e+00) (0, 0, 0.00000000000000000000e+00) (0, 0, 0.00000000000000000000e+00) (0, 0, 0.00000000000000000000e+00) (0, 0, 0.00000000000000000000e+00) (0, 0, 0.00000000000000000000e+00) (0, 0, 0.00000000000000000000e+00) (0, 0, 0.00000000000000000000e+00) (0, 0, 0.00000000000000000000e+00) (0, 0, 0.00000000000000000000e+00) (0, 0, 0.00000000000000000000e+00) (0, 0, 0.00000000000000000000e+00) (401, 5, 5.00000000000000000000e-01) (401, 5, 5.00000000000000000000e-01) (401, 5, 5.00000000000000000000e-01) (401, 5, 5.00000000000000000000e-01) (401, 5, 5.00000000000000000000e-01) (401, 5, 5.00000000000000000000e-01) (401, 5, 5.00000000000000000000e-01) (401, 5, 5.00000000000000000000e-01) (401, 5, 5.00000000000000000000e-01) (401, 5, 5.00000000000000000000e-01) (401, 5, 5.00000000000000000000e-01) (401, 5, 5.00000000000000000000e-01) (401, 5, 5.00000000000000000000e-01) (401, 5, 5.00000000000000000000e-01) (401, 5, 5.00000000000000000000e-01) (401, 5, 5.00000000000000000000e-01) (401, 5, 5.00000000000000000000e-01) (401, 5, 5.00000000000000000000e-01) (401, 5, 5.00000000000000000000e-01) (401, 5, 5.00000000000000000000e-01) (401, 5, 5.00000000000000000000e-01) (401, 5, 5.00000000000000000000e-01) (401, 5, 5.00000000000000000000e-01) (401, 5, 5.00000000000000000000e-01) (401, 5, 5.00000000000000000000e-01) (401, 5, 5.00000000000000000000e-01) (401, 5, 5.00000000000000000000e-01) (401, 5, 5.00000000000000000000e-01) (401, 5, 5.00000000000000000000e-01) (401, 5, 5.00000000000000000000e-01) (401, 5, 5.00000000000000000000e-01) (401, 5, 5.00000000000000000000e-01) (401, 5, 5.00000000000000000000e-01) (401, 5, 5.00000000000000000000e-01) (401, 5, 5.00000000000000000000e-01) (401, 5, 5.00000000000000000000e-01) (401, 5, 5.00000000000000000000e-01) (401, 5, 5.00000000000000000000e-01) (401, 5, 5.00000000000000000000e-01) (401, 5, 5.00000000000000000000e-01) (401, 5, 5.00000000000000000000e-01) (401, 5, 5.00000000000000000000e-01) (401, 5, 5.00000000000000000000e-01) (401, 5, 5.00000000000000000000e-01) (401, 5, 5.00000000000000000000e-01) (401, 5, 5.00000000000000000000e-01) (401, 5, 5.00000000000000000000e-01) (401, 5, 5.00000000000000000000e-01) (401, 5, 5.00000000000000000000e-01) (401, 5, 5.00000000000000000000e-01) (401, 5, 5.00000000000000000000e-01) (401, 5, 5.00000000000000000000e-01) (401, 5, 5.00000000000000000000e-01) (401, 5, 5.00000000000000000000e-01) (401, 5, 5.00000000000000000000e-01) (401, 5, 5.00000000000000000000e-01) (401, 5, 5.00000000000000000000e-01) (401, 5, 5.00000000000000000000e-01) (401, 5, 5.00000000000000000000e-01) (401, 5, 5.00000000000000000000e-01) (401, 5, 5.00000000000000000000e-01) (401, 5, 5.00000000000000000000e-01) (401, 5, 5.00000000000000000000e-01) (401, 5, 5.00000000000000000000e-01) (401, 5, 5.00000000000000000000e-01) (401, 5, 5.00000000000000000000e-01) (401, 5, 5.00000000000000000000e-01) (401, 5, 5.00000000000000000000e-01) (401, 5, 5.00000000000000000000e-01) (401, 5, 5.00000000000000000000e-01) (401, 5, 5.00000000000000000000e-01) (401, 5, 5.00000000000000000000e-01) (401, 5, 5.00000000000000000000e-01) (401, 5, 5.00000000000000000000e-01) (401, 5, 5.00000000000000000000e-01) (401, 5, 5.00000000000000000000e-01) (401, 5, 5.00000000000000000000e-01) (401, 5, 5.00000000000000000000e-01) (401, 5, 5.00000000000000000000e-01) (401, 5, 5.00000000000000000000e-01) (401, 5, 5.00000000000000000000e-01) (401, 5, 5.00000000000000000000e-01) (401, 5, 5.00000000000000000000e-01) (401, 5, 5.00000000000000000000e-01) (401, 5, 5.00000000000000000000e-01) (401, 5, 5.00000000000000000000e-01) (401, 5, 5.00000000000000000000e-01) (401, 5, 5.00000000000000000000e-01) (401, 5, 5.00000000000000000000e-01) (401, 5, 5.00000000000000000000e-01) (401, 5, 5.00000000000000000000e-01) (401, 5, 5.00000000000000000000e-01) (401, 5, 5.00000000000000000000e-01) (401, 5, 5.00000000000000000000e-01) (401, 5, 5.00000000000000000000e-01) (401, 5, 5.00000000000000000000e-01) (401, 5, 5.00000000000000000000e-01) (401, 5, 5.00000000000000000000e-01) (401, 5, 5.00000000000000000000e-01) (401, 5, 5.00000000000000000000e-01) (0, 5, 0.00000000000000000000e+00) (101, 5, 5.00000000000000000000e-01) (101, 5, 5.00000000000000000000e-01) (101, 5, 5.00000000000000000000e-01) (101, 5, 5.00000000000000000000e-01) (0, 5, 0.00000000000000000000e+00) 
connections (connected_to_neuron, weight)=(0, 1.50000000000000000000e+03) (1, 1.50000000000000000000e+03) (2, 1.50000000000000000000e+03) (3, 1.50000000000000000000e+03) (4, 1.50000000000000000000e+03) (5, 1.50000000000000000000e+03) (6, 1.50000000000000000000e+03) (7, 1.50000000000000000000e+03) (8, 1.50000000000000000000e+03) (9, 1.50000000000000000000e+03) (10, 2.50236298888921737671e-02) (11, 9.50411930680274963379e-02) (12, -2.12153628468513488770e-01) (13, 6.16387948393821716309e-02) (14, 1.50000000000000000000e+03) (15, 1.50000000000000000000e+03) (16, 1.50000000000000000000e+03) (17, 1.50000000000000000000e+03) (18, 1.50000000000000000000e+03) (19, 1.50000000000000000000e+03) (20, 1.50000000000000000000e+03) (21, 1.50000000000000000000e+03) (22, 1.50000000000000000000e+03) (23, 6.88267424702644348145e-02) (24, -3.53783443570137023926e-02) (25, 1.74568936228752136230e-01) (26, -8.51294517517089843750e-01) (27, -3.72467458248138427734e-01) (28, -4.49503213167190551758e-02) (29, -2.31193125247955322266e-01) (30, 3.35133820772171020508e-01) (31, -2.01300811767578125000e+00) (32, 1.84523940086364746094e+00) (33, 3.22292223572731018066e-02) (34, 1.42283350229263305664e-01) (35, 1.50000000000000000000e+03) (36, 1.50000000000000000000e+03) (37, 1.50000000000000000000e+03) (38, 1.50000000000000000000e+03) (39, 1.50000000000000000000e+03) (40, 1.50000000000000000000e+03) (41, 1.50000000000000000000e+03) (42, 7.06750527024269104004e-02) (43, 2.02233925461769104004e-01) (44, 5.75713038444519042969e-01) (45, -2.42700368165969848633e-01) (46, -9.18767511844635009766e-01) (47, 5.25551319122314453125e-01) (48, -1.54174578189849853516e+00) (49, 2.02470868825912475586e-02) (50, 1.99168678373098373413e-02) (51, 5.86530491709709167480e-02) (52, 9.45648923516273498535e-02) (53, -1.48995354771614074707e-01) (54, 4.58478480577468872070e-01) (55, -8.45917984843254089355e-02) (56, -9.16491806507110595703e-01) (57, -6.63139641284942626953e-01) (58, 1.50000000000000000000e+03) (59, 1.50000000000000000000e+03) (60, 1.50000000000000000000e+03) (61, 3.34685901179909706116e-03) (62, 4.15074378252029418945e-02) (63, 4.76626455783843994141e-01) (64, -4.53359723091125488281e-01) (65, -4.99514818191528320312e-01) (66, 2.86028943955898284912e-02) (67, 7.63007998466491699219e-02) (68, -1.13814383745193481445e-01) (69, 1.58486992120742797852e-01) (70, -3.46634089946746826172e-02) (71, 1.44323602318763732910e-01) (72, 2.78181731700897216797e-02) (73, -3.24931591749191284180e-02) (74, -1.17422550916671752930e-01) (75, -1.15146175026893615723e-01) (76, -6.07874035835266113281e-01) (77, -9.53300654888153076172e-01) (78, 1.50000000000000000000e+03) (79, 1.50000000000000000000e+03) (80, 1.50000000000000000000e+03) (81, -3.34726199507713317871e-02) (82, 9.93808388710021972656e-01) (83, 3.06315153837203979492e-01) (84, -6.08203589916229248047e-01) (85, -2.37953048199415206909e-02) (86, -1.59609690308570861816e-02) (87, -5.11043407022953033447e-02) (88, 6.58703297376632690430e-02) (89, -8.77427875995635986328e-01) (90, 3.41366499662399291992e-01) (91, 7.96516910195350646973e-02) (92, -9.54326614737510681152e-02) (93, -2.35271275043487548828e-01) (94, 7.76593983173370361328e-02) (95, -4.25261855125427246094e-01) (96, -2.00461298227310180664e-01) (97, 1.50000000000000000000e+03) (98, 1.50000000000000000000e+03) (99, 1.50000000000000000000e+03) (100, 1.50000000000000000000e+03) (101, -2.60781347751617431641e-02) (102, 1.50000000000000000000e+03) (103, 7.58225321769714355469e-02) (104, 6.85001537203788757324e-02) (105, 9.71423536539077758789e-02) (106, -2.20447570085525512695e-01) (107, -3.04496493190526962280e-02) (108, 6.19629733264446258545e-02) (109, -5.18794894218444824219e-01) (110, 1.70048609375953674316e-01) (111, 3.58051687479019165039e-01) (112, 1.24207623302936553955e-02) (113, 1.02613143622875213623e-01) (114, -3.53285580873489379883e-01) (115, -2.44917403906583786011e-02) (116, -2.33368113636970520020e-01) (117, 1.50000000000000000000e+03) (118, 1.50000000000000000000e+03) (119, 1.50000000000000000000e+03) (120, 1.50000000000000000000e+03) (121, 2.68305744975805282593e-02) (122, 1.36841729283332824707e-01) (123, 2.26381134986877441406e+00) (124, -1.79120257496833801270e-01) (125, 5.65168401226401329041e-03) (126, 1.55075490474700927734e-01) (127, 7.51295965164899826050e-03) (128, 3.18742133677005767822e-02) (129, 1.60176455974578857422e-01) (130, 7.44303166866302490234e-02) (131, 7.67091631889343261719e-01) (132, 7.74032250046730041504e-02) (133, 9.34731289744377136230e-02) (134, -3.08569788932800292969e-01) (135, 5.00669423490762710571e-03) (136, -8.90527129173278808594e-01) (137, 1.50000000000000000000e+03) (138, 1.50000000000000000000e+03) (139, 1.50000000000000000000e+03) (140, 1.50000000000000000000e+03) (141, 2.17430237680673599243e-02) (142, 2.29410076141357421875e+01) (143, 2.23040533065795898438e+00) (144, -3.02868843078613281250e-01) (145, -1.66821293532848358154e-02) (146, -3.02241779863834381104e-02) (147, 1.26687407493591308594e-01) (148, 9.40727144479751586914e-02) (149, 4.20256741344928741455e-02) (150, -8.09294432401657104492e-02) (151, 5.18376864492893218994e-02) (152, 2.08431184291839599609e-02) (153, -2.09980338811874389648e-01) (154, -3.88293042778968811035e-02) (155, 3.51092629134654998779e-02) (156, 4.27094846963882446289e-02) (157, 1.50000000000000000000e+03) (158, 1.50000000000000000000e+03) (159, 1.50000000000000000000e+03) (160, 1.50000000000000000000e+03) (161, -6.52378797531127929688e-02) (162, 9.25557985901832580566e-02) (163, 4.26550090312957763672e-01) (164, -2.45940033346414566040e-02) (165, 3.51075758226215839386e-03) (166, -3.94702881574630737305e-01) (167, 3.87060344219207763672e-01) (168, 1.08504319190979003906e+00) (169, 4.86076343804597854614e-03) (170, -1.35379090905189514160e-01) (171, 1.03370593860745429993e-02) (172, -9.66655611991882324219e-02) (173, -5.33209834247827529907e-03) (174, -5.83104565739631652832e-02) (175, -3.42129804193973541260e-02) (176, 2.24143136292695999146e-02) (177, 1.50000000000000000000e+03) (178, 1.50000000000000000000e+03) (179, 1.50000000000000000000e+03) (180, 1.50000000000000000000e+03) (181, 1.50000000000000000000e+03) (182, 1.18526987731456756592e-01) (183, 8.44769299030303955078e-01) (184, 9.30727839469909667969e-01) (185, 6.27115592360496520996e-02) (186, 9.27417278289794921875e-02) (187, 1.33221542835235595703e+00) (188, 3.70513945817947387695e-01) (189, 8.87504294514656066895e-02) (190, 1.17981009185314178467e-01) (191, 1.59628689289093017578e-01) (192, -2.85623725503683090210e-02) (193, -1.05828456580638885498e-01) (194, 8.31915289163589477539e-02) (195, -4.20711450278759002686e-02) (196, 1.45391750335693359375e+00) (197, -1.07178848702460527420e-03) (198, -5.34775927662849426270e-02) (199, 1.50000000000000000000e+03) (200, 1.50000000000000000000e+03) (201, 1.50000000000000000000e+03) (202, -1.30307096987962722778e-02) (203, 2.22981023788452148438e+00) (204, 6.00462667644023895264e-02) (205, 5.80950081348419189453e-01) (206, 9.93528887629508972168e-02) (207, 3.60758185386657714844e-01) (208, 1.29276946187019348145e-01) (209, 7.54383876919746398926e-02) (210, 5.03424108028411865234e-01) (211, 1.49503666907548904419e-02) (212, 5.69464415311813354492e-02) (213, 3.83729524910449981689e-02) (214, 2.87329275161027908325e-02) (215, 5.99641911685466766357e-02) (216, 2.68972229957580566406e+00) (217, 1.50000000000000000000e+03) (218, 1.50000000000000000000e+03) (219, 1.50000000000000000000e+03) (220, 1.50000000000000000000e+03) (221, 4.31120544672012329102e-01) (222, 6.39338254928588867188e-01) (223, -1.39949643611907958984e+00) (224, 6.14215135574340820312e-01) (225, 4.97255325317382812500e-02) (226, 3.41800123453140258789e-01) (227, 7.36460089683532714844e-02) (228, -7.57506042718887329102e-02) (229, 1.04293897747993469238e-02) (230, 1.44140273332595825195e-01) (231, 1.10147282481193542480e-01) (232, 9.87386628985404968262e-02) (233, -3.19418534636497497559e-02) (234, -1.37570267543196678162e-02) (235, 1.46077468991279602051e-01) (236, -5.62958940863609313965e-02) (237, 1.50000000000000000000e+03) (238, 1.50000000000000000000e+03) (239, 1.50000000000000000000e+03) (240, 1.50000000000000000000e+03) (241, 1.50000000000000000000e+03) (242, 1.22575147543102502823e-05) (243, 8.59241843223571777344e-01) (244, 6.13557624816894531250e+00) (245, 2.98595964908599853516e-01) (246, -1.10521810129284858704e-02) (247, 2.34492234885692596436e-02) (248, -1.26554381847381591797e+00) (249, 8.13391029834747314453e-01) (250, 3.64572703838348388672e-02) (251, 1.42337292432785034180e-01) (252, -6.17620609700679779053e-02) (253, -2.31072884052991867065e-02) (254, 2.44432657957077026367e-01) (255, 1.10681064426898956299e-01) (256, 6.46676868200302124023e-02) (257, 1.50000000000000000000e+03) (258, 1.50000000000000000000e+03) (259, 1.50000000000000000000e+03) (260, 1.50000000000000000000e+03) (261, 1.50000000000000000000e+03) (262, 6.34714290499687194824e-02) (263, -7.11087021045386791229e-04) (264, 4.21345800161361694336e-01) (265, 5.62031343579292297363e-02) (266, 8.25872123241424560547e-02) (267, -1.28641724586486816406e-01) (268, -6.09144708141684532166e-03) (269, -2.03694805502891540527e-01) (270, 1.58213689923286437988e-01) (271, -1.89487114548683166504e-02) (272, 1.49818910285830497742e-02) (273, 2.09054704755544662476e-02) (274, 1.15345731377601623535e-01) (275, 1.91623009741306304932e-02) (276, 8.74522566795349121094e-01) (277, 1.20723642408847808838e-01) (278, 1.50000000000000000000e+03) (279, 1.50000000000000000000e+03) (280, 1.50000000000000000000e+03) (281, 1.50000000000000000000e+03) (282, 6.69328808784484863281e-01) (283, 7.68837118148803710938e+00) (284, -3.74567329883575439453e-01) (285, 5.26233434677124023438e-01) (286, 3.74519228935241699219e-01) (287, -1.90145447850227355957e-01) (288, -7.79162123799324035645e-02) (289, -1.52253165841102600098e-01) (290, -1.71519845724105834961e-01) (291, 7.85064771771430969238e-02) (292, 1.31922394037246704102e-01) (293, 9.16910246014595031738e-02) (294, 1.34754955768585205078e-01) (295, 9.40132588148117065430e-02) (296, 2.35330162048339843750e+01) (297, -2.73666321299970149994e-03) (298, 1.08304515480995178223e-01) (299, 1.50000000000000000000e+03) (300, 1.50000000000000000000e+03) (301, 1.50000000000000000000e+03) (302, 1.50000000000000000000e+03) (303, 1.31151354312896728516e+00) (304, -1.99406433105468750000e+00) (305, -7.81974568963050842285e-02) (306, 3.41741330921649932861e-02) (307, -1.48859933018684387207e-01) (308, -2.09526389837265014648e-01) (309, 2.30244025588035583496e-02) (310, -1.75767745822668075562e-02) (311, 5.15371859073638916016e-02) (312, 3.30735407769680023193e-02) (313, 1.62632599472999572754e-01) (314, -6.68817937374114990234e-01) (315, -5.15756644308567047119e-02) (316, -2.54992079734802246094e+00) (317, 9.40345153212547302246e-02) (318, -3.21142449975013732910e-02) (319, 1.50000000000000000000e+03) (320, 1.50000000000000000000e+03) (321, 1.50000000000000000000e+03) (322, 1.50000000000000000000e+03) (323, -1.02248542010784149170e-01) (324, -1.29466819763183593750e+01) (325, -7.61471390724182128906e-02) (326, -6.70564889907836914062e-01) (327, 4.89044040441513061523e-02) (328, -6.09706342220306396484e-01) (329, 1.13762699067592620850e-01) (330, 1.69111192226409912109e-01) (331, 1.66046559810638427734e-01) (332, -5.43302953243255615234e-01) (333, 7.24682286381721496582e-02) (334, -6.59800052642822265625e-01) (335, -1.77625063806772232056e-02) (336, -1.98314893245697021484e+00) (337, 4.39771339297294616699e-02) (338, 1.50000000000000000000e+03) (339, 1.50000000000000000000e+03) (340, 1.50000000000000000000e+03) (341, 1.50000000000000000000e+03) (342, 1.50000000000000000000e+03) (343, -2.31986686587333679199e-01) (344, -4.02408808469772338867e-01) (345, 9.56527218222618103027e-02) (346, 4.47086542844772338867e-01) (347, 7.48014748096466064453e-02) (348, -1.18796736001968383789e-01) (349, -2.99356251955032348633e-01) (350, 1.03763997554779052734e-01) (351, 5.64598739147186279297e-01) (352, 1.07082359492778778076e-01) (353, 5.68526126444339752197e-02) (354, 7.37495645880699157715e-02) (355, 4.86798077821731567383e-01) (356, -1.01430487632751464844e+00) (357, -8.82873684167861938477e-02) (358, -1.16268686950206756592e-01) (359, 1.50000000000000000000e+03) (360, 1.50000000000000000000e+03) (361, 1.50000000000000000000e+03) (362, 1.50000000000000000000e+03) (363, 1.50000000000000000000e+03) (364, 4.36975431442260742188e+00) (365, -1.04504156112670898438e+00) (366, -2.61243637651205062866e-02) (367, -1.77392974495887756348e-01) (368, -6.04529790580272674561e-02) (369, 1.49319007992744445801e-01) (370, 7.86214247345924377441e-02) (371, 2.66687311232089996338e-02) (372, -3.43471094965934753418e-02) (373, 9.91129457950592041016e-01) (374, 5.35226166248321533203e-01) (375, 7.35528707504272460938e+00) (376, -2.85214686393737792969e+00) (377, 1.50000000000000000000e+03) (378, 1.50000000000000000000e+03) (379, 1.50000000000000000000e+03) (380, 1.50000000000000000000e+03) (381, 1.50000000000000000000e+03) (382, 1.50000000000000000000e+03) (383, 1.50000000000000000000e+03) (384, 5.72177283465862274170e-02) (385, 1.31365358829498291016e-01) (386, 3.63455968908965587616e-04) (387, 4.62435977533459663391e-03) (388, -2.38156899809837341309e-01) (389, -1.23429998755455017090e-01) (390, 5.71196042001247406006e-02) (391, 3.12484025955200195312e-01) (392, 5.24021053314208984375e+00) (393, -3.03817480802536010742e-01) (394, 1.50000000000000000000e+03) (395, 1.50000000000000000000e+03) (396, 1.50000000000000000000e+03) (397, 1.50000000000000000000e+03) (398, 1.50000000000000000000e+03) (399, 1.50000000000000000000e+03) (400, -3.07763516902923583984e-02) (0, 1.50000000000000000000e+03) (1, 1.50000000000000000000e+03) (2, 1.50000000000000000000e+03) (3, 1.50000000000000000000e+03) (4, 1.50000000000000000000e+03) (5, 1.50000000000000000000e+03) (6, 1.50000000000000000000e+03) (7, 1.50000000000000000000e+03) (8, 1.50000000000000000000e+03) (9, 1.50000000000000000000e+03) (10, 2.45476886630058288574e-01) (11, 1.98200926184654235840e-01) (12, 4.17809218168258666992e-01) (13, 1.14710561931133270264e-01) (14, 1.50000000000000000000e+03) (15, 1.50000000000000000000e+03) (16, 1.50000000000000000000e+03) (17, 1.50000000000000000000e+03) (18, 1.50000000000000000000e+03) (19, 1.50000000000000000000e+03) (20, 1.50000000000000000000e+03) (21, 1.50000000000000000000e+03) (22, 1.50000000000000000000e+03) (23, 7.13841378688812255859e-01) (24, 7.29438900947570800781e-01) (25, 4.25263106822967529297e-01) (26, 2.02579915523529052734e-01) (27, 2.94974118471145629883e-01) (28, 3.90729099512100219727e-01) (29, 5.39917230606079101562e-01) (30, 1.43086099624633789062e+00) (31, 4.20675784349441528320e-01) (32, 3.00765633583068847656e-01) (33, 3.80076825618743896484e-01) (34, 4.15792584419250488281e-01) (35, 1.50000000000000000000e+03) (36, 1.50000000000000000000e+03) (37, 1.50000000000000000000e+03) (38, 1.50000000000000000000e+03) (39, 1.50000000000000000000e+03) (40, 1.50000000000000000000e+03) (41, 1.50000000000000000000e+03) (42, 6.23426914215087890625e-01) (43, 4.82119351625442504883e-01) (44, 5.44153571128845214844e-01) (45, 2.55411565303802490234e-01) (46, 3.59873056411743164062e-01) (47, 3.17389607429504394531e-01) (48, 2.26798564195632934570e-01) (49, 2.90584504604339599609e-01) (50, 3.59590440988540649414e-01) (51, 3.39683502912521362305e-01) (52, 2.15630874037742614746e-01) (53, 2.70770072937011718750e-01) (54, 2.53285288810729980469e-01) (55, 3.35032880306243896484e-01) (56, -1.10951699316501617432e-01) (57, -9.61864963173866271973e-02) (58, 1.50000000000000000000e+03) (59, 1.50000000000000000000e+03) (60, 1.50000000000000000000e+03) (61, 7.78185963630676269531e-01) (62, 7.57805705070495605469e-01) (63, 3.35545450448989868164e-01) (64, 3.68650674819946289062e-01) (65, 5.11732399463653564453e-01) (66, 3.41641187667846679688e-01) (67, 2.88107693195343017578e-01) (68, 3.08611989021301269531e-01) (69, 3.10794442892074584961e-01) (70, 2.13787063956260681152e-01) (71, 3.66723865270614624023e-01) (72, 2.47905462980270385742e-01) (73, 2.38835945725440979004e-01) (74, 3.56286942958831787109e-01) (75, 3.43764185905456542969e-01) (76, 2.52981245517730712891e-01) (77, -8.89020413160324096680e-02) (78, 1.50000000000000000000e+03) (79, 1.50000000000000000000e+03) (80, 1.50000000000000000000e+03) (81, 6.23112320899963378906e-01) (82, 4.80477243661880493164e-01) (83, 4.07460689544677734375e-01) (84, 3.11487883329391479492e-01) (85, 2.80321806669235229492e-01) (86, 2.26355165243148803711e-01) (87, 3.08748960494995117188e-01) (88, 3.67268621921539306641e-01) (89, 4.83680158853530883789e-01) (90, 4.56882327795028686523e-01) (91, 2.37080022692680358887e-01) (92, 4.00401949882507324219e-01) (93, 3.27904194593429565430e-01) (94, 3.07893037796020507812e-01) (95, 2.86787062883377075195e-01) (96, 1.06898032128810882568e-01) (97, 1.50000000000000000000e+03) (98, 1.50000000000000000000e+03) (99, 1.50000000000000000000e+03) (100, 1.50000000000000000000e+03) (101, 7.04217731952667236328e-01) (102, 1.50000000000000000000e+03) (103, 3.36096912622451782227e-01) (104, 4.71455574035644531250e-01) (105, 3.86584341526031494141e-01) (106, 5.57160496711730957031e-01) (107, 5.72574079036712646484e-01) (108, 4.62289452552795410156e-01) (109, 3.92422020435333251953e-01) (110, 3.30784291028976440430e-01) (111, 3.68153363466262817383e-01) (112, 4.28646087646484375000e-01) (113, 2.60295838117599487305e-01) (114, 3.41688990592956542969e-01) (115, 2.65861093997955322266e-01) (116, 2.17904835939407348633e-01) (117, 1.50000000000000000000e+03) (118, 1.50000000000000000000e+03) (119, 1.50000000000000000000e+03) (120, 1.50000000000000000000e+03) (121, 7.67118573188781738281e-01) (122, 3.72806459665298461914e-01) (123, 3.79166573286056518555e-01) (124, 3.87005209922790527344e-01) (125, 5.06486177444458007812e-01) (126, 4.03863579034805297852e-01) (127, 4.24640119075775146484e-01) (128, 5.00395655632019042969e-01) (129, 4.32882934808731079102e-01) (130, 3.06204885244369506836e-01) (131, 3.35697680711746215820e-01) (132, 3.86613786220550537109e-01) (133, 3.70943993330001831055e-01) (134, 3.65296155214309692383e-01) (135, 2.75210410356521606445e-01) (136, 3.50748360157012939453e-01) (137, 1.50000000000000000000e+03) (138, 1.50000000000000000000e+03) (139, 1.50000000000000000000e+03) (140, 1.50000000000000000000e+03) (141, 6.83516263961791992188e-01) (142, 4.25867706537246704102e-01) (143, 4.36629801988601684570e-01) (144, 5.27010917663574218750e-01) (145, 5.22236526012420654297e-01) (146, 3.77365320920944213867e-01) (147, 4.51636821031570434570e-01) (148, 3.79480093717575073242e-01) (149, 4.26586985588073730469e-01) (150, 3.72997224330902099609e-01) (151, 3.78067821264266967773e-01) (152, 4.16025608777999877930e-01) (153, 3.53409439325332641602e-01) (154, 4.33165520429611206055e-01) (155, 3.19449931383132934570e-01) (156, 3.94261986017227172852e-01) (157, 1.50000000000000000000e+03) (158, 1.50000000000000000000e+03) (159, 1.50000000000000000000e+03) (160, 1.50000000000000000000e+03) (161, 6.41963124275207519531e-01) (162, 6.36044204235076904297e-01) (163, 3.60181599855422973633e-01) (164, 5.65542042255401611328e-01) (165, 5.93757808208465576172e-01) (166, 4.47057276964187622070e-01) (167, 4.86490368843078613281e-01) (168, 3.49562019109725952148e-01) (169, 3.54620307683944702148e-01) (170, 5.04565894603729248047e-01) (171, 4.27983611822128295898e-01) (172, 4.54082578420639038086e-01) (173, 3.92337650060653686523e-01) (174, 4.75097626447677612305e-01) (175, 3.20549815893173217773e-01) (176, 4.49547410011291503906e-01) (177, 1.50000000000000000000e+03) (178, 1.50000000000000000000e+03) (179, 1.50000000000000000000e+03) (180, 1.50000000000000000000e+03) (181, 1.50000000000000000000e+03) (182, 4.90049898624420166016e-01) (183, 3.68506520986557006836e-01) (184, 5.58200478553771972656e-01) (185, 3.61927241086959838867e-01) (186, 4.65761601924896240234e-01) (187, 3.19296181201934814453e-01) (188, 3.68710666894912719727e-01) (189, 3.87897849082946777344e-01) (190, 2.51736134290695190430e-01) (191, 4.24690335988998413086e-01) (192, 3.28711092472076416016e-01) (193, 4.06008303165435791016e-01) (194, 3.15706968307495117188e-01) (195, 3.98001939058303833008e-01) (196, 4.57871168851852416992e-01) (197, 4.46514338254928588867e-01) (198, 6.13886952400207519531e-01) (199, 1.50000000000000000000e+03) (200, 1.50000000000000000000e+03) (201, 1.50000000000000000000e+03) (202, 5.72630465030670166016e-01) (203, 5.01157581806182861328e-01) (204, 4.73335176706314086914e-01) (205, 5.04676640033721923828e-01) (206, 3.50153684616088867188e-01) (207, 5.29842019081115722656e-01) (208, 5.38924872875213623047e-01) (209, 3.63633364439010620117e-01) (210, 4.96993541717529296875e-01) (211, 4.50344741344451904297e-01) (212, 2.90815144777297973633e-01) (213, 2.72259742021560668945e-01) (214, 3.18367063999176025391e-01) (215, 3.14504057168960571289e-01) (216, 3.50418925285339355469e-01) (217, 1.50000000000000000000e+03) (218, 1.50000000000000000000e+03) (219, 1.50000000000000000000e+03) (220, 1.50000000000000000000e+03) (221, -3.63691419363021850586e-01) (222, 5.12059450149536132812e-01) (223, 4.67405200004577636719e-01) (224, 5.08992731571197509766e-01) (225, 4.56622391939163208008e-01) (226, 5.06910324096679687500e-01) (227, 4.41592514514923095703e-01) (228, 5.35267055034637451172e-01) (229, 5.15294492244720458984e-01) (230, 4.73185271024703979492e-01) (231, 4.92696106433868408203e-01) (232, 4.38930004835128784180e-01) (233, 3.51503014564514160156e-01) (234, 3.75570267438888549805e-01) (235, 5.29792129993438720703e-01) (236, 1.10971383750438690186e-01) (237, 1.50000000000000000000e+03) (238, 1.50000000000000000000e+03) (239, 1.50000000000000000000e+03) (240, 1.50000000000000000000e+03) (241, 1.50000000000000000000e+03) (242, 5.28894841670989990234e-01) (243, 5.54707586765289306641e-01) (244, 5.31669855117797851562e-01) (245, 6.02072715759277343750e-01) (246, 6.15713119506835937500e-01) (247, 6.66392087936401367188e-01) (248, 5.67778646945953369141e-01) (249, 4.18630927801132202148e-01) (250, 5.11776983737945556641e-01) (251, 5.70146203041076660156e-01) (252, 4.29079145193099975586e-01) (253, 3.44770759344100952148e-01) (254, 3.94593417644500732422e-01) (255, 4.59068924188613891602e-01) (256, 2.16800570487976074219e-01) (257, 1.50000000000000000000e+03) (258, 1.50000000000000000000e+03) (259, 1.50000000000000000000e+03) (260, 1.50000000000000000000e+03) (261, 1.50000000000000000000e+03) (262, 3.63824278116226196289e-01) (263, 4.22293215990066528320e-01) (264, 5.99972665309906005859e-01) (265, 4.73380237817764282227e-01) (266, 4.33749794960021972656e-01) (267, 4.98584926128387451172e-01) (268, 5.81306993961334228516e-01) (269, 6.86594545841217041016e-01) (270, 3.57371866703033447266e-01) (271, 3.91989797353744506836e-01) (272, 4.47153836488723754883e-01) (273, 3.82784277200698852539e-01) (274, 5.35370588302612304688e-01) (275, 3.71001243591308593750e-01) (276, 3.89493644237518310547e-01) (277, 6.45430803298950195312e-01) (278, 1.50000000000000000000e+03) (279, 1.50000000000000000000e+03) (280, 1.50000000000000000000e+03) (281, 1.50000000000000000000e+03) (282, 4.08897221088409423828e-01) (283, 3.16079139709472656250e-01) (284, 4.97676104307174682617e-01) (285, 4.53374743461608886719e-01) (286, 5.50450205802917480469e-01) (287, 4.56387758255004882812e-01) (288, 3.51285964250564575195e-01) (289, 5.10624825954437255859e-01) (290, 4.68496829271316528320e-01) (291, 5.25769770145416259766e-01) (292, 3.11973482370376586914e-01) (293, 5.30667662620544433594e-01) (294, 3.89057368040084838867e-01) (295, 4.49009686708450317383e-01) (296, 5.87834775447845458984e-01) (297, 5.68230390548706054688e-01) (298, 6.03736102581024169922e-01) (299, 1.50000000000000000000e+03) (300, 1.50000000000000000000e+03) (301, 1.50000000000000000000e+03) (302, 1.50000000000000000000e+03) (303, 6.04228556156158447266e-01) (304, 4.63550239801406860352e-01) (305, 4.46704894304275512695e-01) (306, 3.88768017292022705078e-01) (307, 4.60985094308853149414e-01) (308, 3.96174371242523193359e-01) (309, 4.82087343931198120117e-01) (310, 3.74372184276580810547e-01) (311, 4.53541427850723266602e-01) (312, 3.95527154207229614258e-01) (313, 4.59053725004196166992e-01) (314, 4.30095165967941284180e-01) (315, 5.31742334365844726562e-01) (316, 6.73472046852111816406e-01) (317, 5.76121151447296142578e-01) (318, 6.55530929565429687500e-01) (319, 1.50000000000000000000e+03) (320, 1.50000000000000000000e+03) (321, 1.50000000000000000000e+03) (322, 1.50000000000000000000e+03) (323, 4.45485711097717285156e-01) (324, 5.40749967098236083984e-01) (325, 3.48698288202285766602e-01) (326, 4.52359646558761596680e-01) (327, 3.72492045164108276367e-01) (328, 4.68529373407363891602e-01) (329, 4.02493864297866821289e-01) (330, 4.45819199085235595703e-01) (331, 3.52271944284439086914e-01) (332, 3.76227766275405883789e-01) (333, 5.28152883052825927734e-01) (334, 3.29498559236526489258e-01) (335, 5.56593537330627441406e-01) (336, 4.98927205801010131836e-01) (337, 5.12928485870361328125e-01) (338, 1.50000000000000000000e+03) (339, 1.50000000000000000000e+03) (340, 1.50000000000000000000e+03) (341, 1.50000000000000000000e+03) (342, 1.50000000000000000000e+03) (343, -3.98398004472255706787e-02) (344, 4.55004364252090454102e-01) (345, 3.41907382011413574219e-01) (346, 4.11837041378021240234e-01) (347, 5.09914398193359375000e-01) (348, 4.52535152435302734375e-01) (349, 4.09695297479629516602e-01) (350, 5.67535936832427978516e-01) (351, 3.61511230468750000000e-01) (352, 2.93939560651779174805e-01) (353, 4.00965213775634765625e-01) (354, 3.22373449802398681641e-01) (355, 5.44580399990081787109e-01) (356, 5.88460564613342285156e-01) (357, 6.72520160675048828125e-01) (358, 7.08412647247314453125e-01) (359, 1.50000000000000000000e+03) (360, 1.50000000000000000000e+03) (361, 1.50000000000000000000e+03) (362, 1.50000000000000000000e+03) (363, 1.50000000000000000000e+03) (364, 2.55703389644622802734e-01) (365, 3.45188081264495849609e-01) (366, 4.13156241178512573242e-01) (367, 5.06341040134429931641e-01) (368, 3.65715026855468750000e-01) (369, 3.58467102050781250000e-01) (370, 3.91978383064270019531e-01) (371, 3.34029197692871093750e-01) (372, 3.52084904909133911133e-01) (373, 5.68700551986694335938e-01) (374, 4.28988635540008544922e-01) (375, 5.16558229923248291016e-01) (376, 5.74395060539245605469e-01) (377, 1.50000000000000000000e+03) (378, 1.50000000000000000000e+03) (379, 1.50000000000000000000e+03) (380, 1.50000000000000000000e+03) (381, 1.50000000000000000000e+03) (382, 1.50000000000000000000e+03) (383, 1.50000000000000000000e+03) (384, 2.20903649926185607910e-01) (385, 7.98636600375175476074e-02) (386, 2.29972198605537414551e-01) (387, 1.69711351394653320312e-01) (388, 2.12149173021316528320e-01) (389, 2.26597741246223449707e-01) (390, 1.49908602237701416016e-01) (391, -1.22637981548905372620e-02) (392, 3.03810536861419677734e-01) (393, 3.00982475280761718750e-01) (394, 1.50000000000000000000e+03) (395, 1.50000000000000000000e+03) (396, 1.50000000000000000000e+03) (397, 1.50000000000000000000e+03) (398, 1.50000000000000000000e+03) (399, 1.50000000000000000000e+03) (400, 2.60471284389495849609e-01) (0, 1.50000000000000000000e+03) (1, 1.50000000000000000000e+03) (2, 1.50000000000000000000e+03) (3, 1.50000000000000000000e+03) (4, 1.50000000000000000000e+03) (5, 1.50000000000000000000e+03) (6, 1.50000000000000000000e+03) (7, 1.50000000000000000000e+03) (8, 1.50000000000000000000e+03) (9, 1.50000000000000000000e+03) (10, -1.72348946332931518555e-01) (11, -5.59270381927490234375e-02) (12, -1.49155557155609130859e-01) (13, 2.66041755676269531250e+00) (14, 1.50000000000000000000e+03) (15, 1.50000000000000000000e+03) (16, 1.50000000000000000000e+03) (17, 1.50000000000000000000e+03) (18, 1.50000000000000000000e+03) (19, 1.50000000000000000000e+03) (20, 1.50000000000000000000e+03) (21, 1.50000000000000000000e+03) (22, 1.50000000000000000000e+03) (23, -2.25810363888740539551e-01) (24, -1.34374514222145080566e-01) (25, -1.15426316857337951660e-01) (26, -3.37759464979171752930e-01) (27, -2.78558850288391113281e-01) (28, -2.96985089778900146484e-01) (29, 4.25655066967010498047e-01) (30, 7.48757481575012207031e-01) (31, 4.74631261825561523438e+00) (32, -4.51731055974960327148e-01) (33, -1.05696320533752441406e+00) (34, -7.04152107238769531250e-01) (35, 1.50000000000000000000e+03) (36, 1.50000000000000000000e+03) (37, 1.50000000000000000000e+03) (38, 1.50000000000000000000e+03) (39, 1.50000000000000000000e+03) (40, 1.50000000000000000000e+03) (41, 1.50000000000000000000e+03) (42, -1.74134775996208190918e-01) (43, -1.07917952537536621094e+00) (44, 2.01170608401298522949e-01) (45, 5.34906089305877685547e-01) (46, -5.70744419097900390625e+00) (47, 4.28929805755615234375e-01) (48, -4.71534937620162963867e-01) (49, 3.61333668231964111328e-01) (50, 4.21381682157516479492e-01) (51, 4.71982330083847045898e-01) (52, -9.14990603923797607422e-02) (53, -9.38340902328491210938e-01) (54, 2.52594128251075744629e-02) (55, -2.76941917836666107178e-02) (56, -1.45278561115264892578e+00) (57, -1.30876874923706054688e+00) (58, 1.50000000000000000000e+03) (59, 1.50000000000000000000e+03) (60, 1.50000000000000000000e+03) (61, -2.28964284062385559082e-01) (62, -1.38989165425300598145e-01) (63, 9.11226645112037658691e-02) (64, 4.00450304150581359863e-02) (65, 2.62281060218811035156e-01) (66, 4.95312631130218505859e-01) (67, -1.29583880305290222168e-01) (68, -9.71314460039138793945e-02) (69, -4.05021123588085174561e-02) (70, 3.12702834606170654297e-01) (71, -8.57376977801322937012e-02) (72, -1.54677033424377441406e-02) (73, -8.15621092915534973145e-02) (74, -1.21217489242553710938e-01) (75, 3.19809801876544952393e-02) (76, 6.08916990458965301514e-02) (77, -3.05583000183105468750e+00) (78, 1.50000000000000000000e+03) (79, 1.50000000000000000000e+03) (80, 1.50000000000000000000e+03) (81, -2.57907569408416748047e-01) (82, 6.15080475807189941406e-01) (83, 1.72667002677917480469e+00) (84, 6.52951574325561523438e+00) (85, 5.55398643016815185547e-01) (86, -9.69965755939483642578e-02) (87, -7.22288116812705993652e-02) (88, -6.04639090597629547119e-02) (89, -3.24806779623031616211e-01) (90, 3.50709468126296997070e-01) (91, 2.92569577693939208984e-01) (92, -6.81726932525634765625e-02) (93, -5.02390742301940917969e-01) (94, -1.87288045883178710938e+00) (95, 1.37045979499816894531e-01) (96, 1.13831050693988800049e-01) (97, 1.50000000000000000000e+03) (98, 1.50000000000000000000e+03) (99, 1.50000000000000000000e+03) (100, 1.50000000000000000000e+03) (101, -1.48467764258384704590e-01) (102, 1.50000000000000000000e+03) (103, 5.06749927997589111328e-01) (104, -3.29258255660533905029e-02) (105, -8.39883983135223388672e-02) (106, -1.19693629443645477295e-01) (107, 4.11937199532985687256e-03) (108, 7.69081991165876388550e-03) (109, 1.89282640814781188965e-01) (110, 4.35500331223011016846e-02) (111, 1.45547211170196533203e+00) (112, 3.67159873247146606445e-01) (113, 5.03172159194946289062e-01) (114, 5.51453649997711181641e-01) (115, 2.17986416816711425781e+00) (116, -9.02153104543685913086e-02) (117, 1.50000000000000000000e+03) (118, 1.50000000000000000000e+03) (119, 1.50000000000000000000e+03) (120, 1.50000000000000000000e+03) (121, -2.62065589427947998047e-01) (122, 1.08179360628128051758e-01) (123, 5.38021326065063476562e-01) (124, 2.16471147537231445312e+00) (125, -4.93839755654335021973e-02) (126, -4.13023121654987335205e-02) (127, -5.83693617954850196838e-03) (128, 7.05309584736824035645e-02) (129, -1.06952652335166931152e-01) (130, 1.12483225762844085693e-01) (131, 1.45540583133697509766e+00) (132, 4.94196802377700805664e-01) (133, 8.93928527832031250000e-01) (134, 6.70201361179351806641e-01) (135, 1.46362447738647460938e+00) (136, -3.70527982711791992188e-01) (137, 1.50000000000000000000e+03) (138, 1.50000000000000000000e+03) (139, 1.50000000000000000000e+03) (140, 1.50000000000000000000e+03) (141, -2.05893978476524353027e-01) (142, -1.84074270725250244141e+00) (143, -8.72739970684051513672e-01) (144, 4.64071273803710937500e-01) (145, -1.15514077246189117432e-01) (146, 1.11304789781570434570e-01) (147, -8.01799148321151733398e-02) (148, -9.77596044540405273438e-02) (149, -1.79991006851196289062e-01) (150, -1.23654380440711975098e-01) (151, -1.39478251338005065918e-01) (152, -8.73715654015541076660e-02) (153, 3.68317633867263793945e-01) (154, 4.75978612899780273438e-01) (155, 3.07317793369293212891e-01) (156, 9.61004570126533508301e-02) (157, 1.50000000000000000000e+03) (158, 1.50000000000000000000e+03) (159, 1.50000000000000000000e+03) (160, 1.50000000000000000000e+03) (161, -1.21407106518745422363e-01) (162, 2.17235740274190902710e-02) (163, 7.80841648578643798828e-01) (164, -1.76505193114280700684e-01) (165, 5.55989444255828857422e-02) (166, 6.75267875194549560547e-02) (167, -5.22833764553070068359e-01) (168, -3.25294360518455505371e-02) (169, 5.37027940154075622559e-02) (170, -8.78215879201889038086e-02) (171, 1.48606449365615844727e-01) (172, -1.04644455015659332275e-01) (173, -8.95624279975891113281e-01) (174, 9.82473671436309814453e-01) (175, 3.25460255146026611328e-01) (176, 1.77609041333198547363e-01) (177, 1.50000000000000000000e+03) (178, 1.50000000000000000000e+03) (179, 1.50000000000000000000e+03) (180, 1.50000000000000000000e+03) (181, 1.50000000000000000000e+03) (182, -8.94164219498634338379e-02) (183, 3.60688507556915283203e-01) (184, 2.24008321762084960938e-01) (185, 1.44733980298042297363e-01) (186, 1.46500696428120136261e-03) (187, -4.35994612053036689758e-03) (188, 4.74240988492965698242e-01) (189, 4.60256993770599365234e-01) (190, 4.62580323219299316406e-02) (191, 1.19534879922866821289e-01) (192, -1.08701050281524658203e-01) (193, -1.14387735724449157715e-01) (194, -1.26341894268989562988e-01) (195, -2.55357956886291503906e+00) (196, -1.49308478832244873047e+00) (197, -2.14547306299209594727e-01) (198, -2.19503983855247497559e-01) (199, 1.50000000000000000000e+03) (200, 1.50000000000000000000e+03) (201, 1.50000000000000000000e+03) (202, -5.81032559275627136230e-02) (203, 1.46631553769111633301e-01) (204, 9.18020069599151611328e-01) (205, 4.64395791292190551758e-01) (206, -2.12913118302822113037e-02) (207, 1.42394572496414184570e-01) (208, 1.22509025037288665771e-01) (209, 1.74385547637939453125e-01) (210, 9.86318141222000122070e-02) (211, 8.79840776324272155762e-02) (212, -4.49039563536643981934e-02) (213, 1.38927543163299560547e+00) (214, 2.44922544807195663452e-02) (215, 1.80436391383409500122e-02) (216, -1.81818902492523193359e-01) (217, 1.50000000000000000000e+03) (218, 1.50000000000000000000e+03) (219, 1.50000000000000000000e+03) (220, 1.50000000000000000000e+03) (221, -2.12623000144958496094e-01) (222, -3.61934900283813476562e-02) (223, -1.93262204527854919434e-01) (224, 4.22077357769012451172e-01) (225, -1.68978661298751831055e-01) (226, -3.25365439057350158691e-02) (227, 5.20885773003101348877e-02) (228, -1.41750900074839591980e-02) (229, -5.53762167692184448242e-02) (230, 5.25067709386348724365e-02) (231, 8.46136733889579772949e-02) (232, 1.35053664445877075195e-01) (233, -9.28956642746925354004e-02) (234, 8.65470468997955322266e-02) (235, 1.25568076968193054199e-01) (236, 4.51683672145009040833e-03) (237, 1.50000000000000000000e+03) (238, 1.50000000000000000000e+03) (239, 1.50000000000000000000e+03) (240, 1.50000000000000000000e+03) (241, 1.50000000000000000000e+03) (242, 9.48772951960563659668e-03) (243, -1.53913393616676330566e-01) (244, 1.89780986309051513672e+00) (245, -3.57396900653839111328e-01) (246, -3.86953622102737426758e-01) (247, 8.57982337474822998047e-02) (248, -1.77863195538520812988e-01) (249, -8.37795019149780273438e-01) (250, 3.94806563854217529297e-02) (251, 2.50294711440801620483e-03) (252, -1.43901318311691284180e-01) (253, -8.41420888900756835938e-02) (254, 3.78658180125057697296e-04) (255, 1.09970316290855407715e-01) (256, -1.64245009422302246094e-01) (257, 1.50000000000000000000e+03) (258, 1.50000000000000000000e+03) (259, 1.50000000000000000000e+03) (260, 1.50000000000000000000e+03) (261, 1.50000000000000000000e+03) (262, -4.97977323830127716064e-02) (263, -2.02269649505615234375e+00) (264, 1.21104218065738677979e-01) (265, 2.14026812463998794556e-02) (266, -5.43424308300018310547e-01) (267, -4.58940640091896057129e-02) (268, 6.21109083294868469238e-02) (269, 4.27334681153297424316e-02) (270, 5.23640550673007965088e-02) (271, -1.48933809250593185425e-02) (272, -3.11735514551401138306e-02) (273, 1.04042313992977142334e-01) (274, -4.19748201966285705566e-02) (275, -7.40623567253351211548e-03) (276, -1.04612775146961212158e-01) (277, -1.48024260997772216797e-01) (278, 1.50000000000000000000e+03) (279, 1.50000000000000000000e+03) (280, 1.50000000000000000000e+03) (281, 1.50000000000000000000e+03) (282, 1.64694130420684814453e-01) (283, 8.20151150226593017578e-01) (284, -2.58929872512817382812e+00) (285, 3.92555743455886840820e-01) (286, -1.18032861500978469849e-02) (287, -1.12096913158893585205e-01) (288, -2.87187546491622924805e-01) (289, -1.44713506102561950684e-01) (290, 5.13117387890815734863e-02) (291, 1.93838961422443389893e-02) (292, 3.46128419041633605957e-02) (293, -9.71793681383132934570e-02) (294, 4.13747737184166908264e-03) (295, 4.05064076185226440430e-02) (296, 7.94903635978698730469e-01) (297, -2.36566558480262756348e-01) (298, -1.23541638255119323730e-01) (299, 1.50000000000000000000e+03) (300, 1.50000000000000000000e+03) (301, 1.50000000000000000000e+03) (302, 1.50000000000000000000e+03) (303, 5.23741900920867919922e-01) (304, 1.58135414123535156250e-01) (305, -1.92218494415283203125e+00) (306, -2.25330255925655364990e-02) (307, -7.24455341696739196777e-02) (308, 1.86006333678960800171e-02) (309, -4.85677644610404968262e-02) (310, 4.87687550485134124756e-02) (311, 1.34593918919563293457e-01) (312, 5.74194118380546569824e-02) (313, 1.15504734218120574951e-01) (314, 3.33235442638397216797e-01) (315, 2.51323997974395751953e-01) (316, 5.45880258083343505859e-01) (317, -2.46866539120674133301e-01) (318, -2.45478942990303039551e-01) (319, 1.50000000000000000000e+03) (320, 1.50000000000000000000e+03) (321, 1.50000000000000000000e+03) (322, 1.50000000000000000000e+03) (323, -2.30594620108604431152e-01) (324, 5.47341525554656982422e-01) (325, 3.88249278068542480469e-01) (326, -1.03609412908554077148e-01) (327, 1.01651474833488464355e-01) (328, -3.10161113739013671875e-01) (329, 1.21579691767692565918e-01) (330, 1.47817000746726989746e-01) (331, 8.18777829408645629883e-02) (332, 4.29836720228195190430e-01) (333, 5.24405837059020996094e-01) (334, 5.71907937526702880859e-01) (335, 5.85225522518157958984e-01) (336, 2.47831836342811584473e-01) (337, -2.25558534264564514160e-01) (338, 1.50000000000000000000e+03) (339, 1.50000000000000000000e+03) (340, 1.50000000000000000000e+03) (341, 1.50000000000000000000e+03) (342, 1.50000000000000000000e+03) (343, -2.75979135185480117798e-02) (344, 2.10313767194747924805e-01) (345, 6.14605844020843505859e-01) (346, 1.33615980148315429688e+01) (347, -5.52848875522613525391e-02) (348, 1.45473897457122802734e-01) (349, 2.03057193756103515625e+00) (350, 4.02106463909149169922e-01) (351, 6.00783467292785644531e-01) (352, -1.45144021511077880859e+00) (353, 4.78044033050537109375e-01) (354, 3.17262947559356689453e-01) (355, 4.51490581035614013672e-01) (356, -2.99896061420440673828e-01) (357, 3.43515455722808837891e-01) (358, 3.59995543956756591797e-01) (359, 1.50000000000000000000e+03) (360, 1.50000000000000000000e+03) (361, 1.50000000000000000000e+03) (362, 1.50000000000000000000e+03) (363, 1.50000000000000000000e+03) (364, 2.83985376358032226562e+00) (365, -3.25205028057098388672e-02) (366, 1.54410406947135925293e-01) (367, 1.64766490459442138672e+00) (368, -2.90371847152709960938e+00) (369, 5.30028581619262695312e-01) (370, 5.44338703155517578125e-01) (371, 4.75076258182525634766e-01) (372, 4.05067592859268188477e-01) (373, 4.99898731708526611328e-01) (374, 5.27293503284454345703e-01) (375, 5.44651687145233154297e-01) (376, -4.10930722951889038086e-01) (377, 1.50000000000000000000e+03) (378, 1.50000000000000000000e+03) (379, 1.50000000000000000000e+03) (380, 1.50000000000000000000e+03) (381, 1.50000000000000000000e+03) (382, 1.50000000000000000000e+03) (383, 1.50000000000000000000e+03) (384, -1.00344434380531311035e-01) (385, 7.60936141014099121094e-02) (386, 4.71513904631137847900e-02) (387, -4.68064211308956146240e-02) (388, -2.02428162097930908203e-01) (389, -1.14503122866153717041e-01) (390, 9.91211980581283569336e-02) (391, -4.56737607717514038086e-01) (392, 1.31062030792236328125e+00) (393, -5.18701791763305664062e+00) (394, 1.50000000000000000000e+03) (395, 1.50000000000000000000e+03) (396, 1.50000000000000000000e+03) (397, 1.50000000000000000000e+03) (398, 1.50000000000000000000e+03) (399, 1.50000000000000000000e+03) (400, 2.27765887975692749023e-02) (0, 1.50000000000000000000e+03) (1, 1.50000000000000000000e+03) (2, 1.50000000000000000000e+03) (3, 1.50000000000000000000e+03) (4, 1.50000000000000000000e+03) (5, 1.50000000000000000000e+03) (6, 1.50000000000000000000e+03) (7, 1.50000000000000000000e+03) (8, 1.50000000000000000000e+03) (9, 1.50000000000000000000e+03) (10, 9.59079787135124206543e-02) (11, -9.20527204871177673340e-02) (12, -6.30653375992551445961e-05) (13, 9.52663049101829528809e-02) (14, 1.50000000000000000000e+03) (15, 1.50000000000000000000e+03) (16, 1.50000000000000000000e+03) (17, 1.50000000000000000000e+03) (18, 1.50000000000000000000e+03) (19, 1.50000000000000000000e+03) (20, 1.50000000000000000000e+03) (21, 1.50000000000000000000e+03) (22, 1.50000000000000000000e+03) (23, 8.20971876382827758789e-02) (24, 2.25696936249732971191e-01) (25, -1.88728347420692443848e-01) (26, -3.29139120876789093018e-02) (27, 1.33245944976806640625e-01) (28, -6.10021539032459259033e-02) (29, 3.38671430945396423340e-02) (30, -5.17094098031520843506e-02) (31, 4.63574863970279693604e-02) (32, -3.00034862011671066284e-02) (33, 3.60437445342540740967e-02) (34, 3.97683173418045043945e-01) (35, 1.50000000000000000000e+03) (36, 1.50000000000000000000e+03) (37, 1.50000000000000000000e+03) (38, 1.50000000000000000000e+03) (39, 1.50000000000000000000e+03) (40, 1.50000000000000000000e+03) (41, 1.50000000000000000000e+03) (42, 2.40327730774879455566e-01) (43, 1.97022616863250732422e-01) (44, -4.91382926702499389648e-02) (45, 6.07432536780834197998e-02) (46, 9.70927476882934570312e-02) (47, 5.54431369528174400330e-03) (48, -3.00466362386941909790e-02) (49, -1.49877136573195457458e-02) (50, -5.13356998562812805176e-02) (51, 3.13143171370029449463e-02) (52, -7.29582980275154113770e-02) (53, 2.83212331123650074005e-03) (54, 1.20564781129360198975e-01) (55, 1.71396091580390930176e-01) (56, 4.53703403472900390625e+00) (57, 4.52234220504760742188e+00) (58, 1.50000000000000000000e+03) (59, 1.50000000000000000000e+03) (60, 1.50000000000000000000e+03) (61, 2.00754314661026000977e-01) (62, 1.85940325260162353516e-01) (63, 1.26288056373596191406e-01) (64, -1.70785039663314819336e-02) (65, -4.43588644266128540039e-02) (66, -4.53000217676162719727e-02) (67, 2.76621822267770767212e-02) (68, 4.27749269874766469002e-04) (69, 4.03875820338726043701e-02) (70, 1.38434516265988349915e-02) (71, 8.97645354270935058594e-02) (72, 7.46513949707150459290e-03) (73, 2.72509846836328506470e-02) (74, 1.79657209664583206177e-02) (75, -3.98376770317554473877e-02) (76, 2.32822194695472717285e-01) (77, 2.00496268272399902344e+00) (78, 1.50000000000000000000e+03) (79, 1.50000000000000000000e+03) (80, 1.50000000000000000000e+03) (81, 1.23078972101211547852e-01) (82, -5.24453580379486083984e-01) (83, -1.42845837399363517761e-02) (84, -7.19693442806601524353e-03) (85, -9.41127091646194458008e-02) (86, 3.65098901093006134033e-02) (87, 2.48133465647697448730e-02) (88, 1.35820031166076660156e-01) (89, -5.53538240492343902588e-02) (90, -7.62948766350746154785e-02) (91, -7.04442933201789855957e-02) (92, 3.10155060142278671265e-02) (93, 8.25378820300102233887e-02) (94, 2.32790187001228332520e-02) (95, -5.61142675578594207764e-02) (96, 4.64498788118362426758e-01) (97, 1.50000000000000000000e+03) (98, 1.50000000000000000000e+03) (99, 1.50000000000000000000e+03) (100, 1.50000000000000000000e+03) (101, 2.01488763093948364258e-01) (102, 1.50000000000000000000e+03) (103, 1.20576769113540649414e-02) (104, -1.39771001413464546204e-02) (105, 1.22685842216014862061e-01) (106, 8.39966386556625366211e-02) (107, 5.27872070670127868652e-02) (108, -1.39267101883888244629e-01) (109, -1.47400787100195884705e-02) (110, 1.27417236566543579102e-01) (111, 7.36871063709259033203e-02) (112, 3.28762899152934551239e-03) (113, -2.93077737092971801758e-01) (114, 5.62560148537158966064e-02) (115, -4.31232824921607971191e-02) (116, 2.38136693835258483887e-01) (117, 1.50000000000000000000e+03) (118, 1.50000000000000000000e+03) (119, 1.50000000000000000000e+03) (120, 1.50000000000000000000e+03) (121, 2.14584335684776306152e-01) (122, -7.94569589197635650635e-03) (123, 5.86985656991600990295e-03) (124, -6.00677207112312316895e-02) (125, -1.12950792536139488220e-02) (126, 1.37430340051651000977e-01) (127, -9.57929566502571105957e-02) (128, -5.81305734813213348389e-02) (129, 1.29886478185653686523e-01) (130, 6.08931928873062133789e-02) (131, -9.10298079252243041992e-02) (132, 3.88790592551231384277e-02) (133, -9.72798094153404235840e-02) (134, 5.64170628786087036133e-03) (135, 5.53717128932476043701e-02) (136, 2.60537080466747283936e-02) (137, 1.50000000000000000000e+03) (138, 1.50000000000000000000e+03) (139, 1.50000000000000000000e+03) (140, 1.50000000000000000000e+03) (141, 7.31461346149444580078e-02) (142, -1.41436746343970298767e-02) (143, -4.57378700375556945801e-02) (144, -2.00221866369247436523e-01) (145, 4.21913862228393554688e-02) (146, 1.34142011404037475586e-01) (147, -1.03707149624824523926e-01) (148, 8.26762467622756958008e-02) (149, -4.71953675150871276855e-02) (150, -2.14522764086723327637e-01) (151, -1.06047512963414192200e-03) (152, -1.33905172348022460938e-01) (153, 5.91999702155590057373e-02) (154, -1.71440131962299346924e-02) (155, 3.89532856643199920654e-02) (156, -2.26533990353345870972e-02) (157, 1.50000000000000000000e+03) (158, 1.50000000000000000000e+03) (159, 1.50000000000000000000e+03) (160, 1.50000000000000000000e+03) (161, 2.60291725397109985352e-01) (162, 6.15712925791740417480e-02) (163, 2.68345594406127929688e-01) (164, -6.21516145765781402588e-02) (165, -9.03186872601509094238e-02) (166, 9.95496660470962524414e-03) (167, 3.71737033128738403320e-02) (168, 1.63347721099853515625e-02) (169, -7.91255682706832885742e-02) (170, 2.31516398489475250244e-02) (171, -7.01238587498664855957e-02) (172, -1.27455949783325195312e-01) (173, -1.16753011941909790039e-01) (174, 5.62663413584232330322e-02) (175, -5.17685748636722564697e-02) (176, -1.06098419055342674255e-02) (177, 1.50000000000000000000e+03) (178, 1.50000000000000000000e+03) (179, 1.50000000000000000000e+03) (180, 1.50000000000000000000e+03) (181, 1.50000000000000000000e+03) (182, 1.03568378835916519165e-02) (183, -3.87208200991153717041e-02) (184, 2.12817615829408168793e-03) (185, -1.20692490600049495697e-03) (186, -7.96886533498764038086e-02) (187, -8.04314389824867248535e-02) (188, -5.58965988457202911377e-02) (189, -7.94342905282974243164e-02) (190, -4.09126542508602142334e-02) (191, 3.67462262511253356934e-02) (192, -4.56099137663841247559e-02) (193, -1.14054396748542785645e-01) (194, -4.87760528922080993652e-02) (195, -2.95551437884569168091e-02) (196, 1.67335588485002517700e-02) (197, 3.49899768829345703125e-01) (198, 4.36341241002082824707e-02) (199, 1.50000000000000000000e+03) (200, 1.50000000000000000000e+03) (201, 1.50000000000000000000e+03) (202, -1.41579896211624145508e-01) (203, -1.23252058401703834534e-02) (204, -1.31212219595909118652e-01) (205, -1.01541824638843536377e-01) (206, 9.17343273758888244629e-02) (207, 1.51014670729637145996e-01) (208, 7.73810222744941711426e-03) (209, 8.19261465221643447876e-03) (210, -6.68715219944715499878e-03) (211, 1.64745748043060302734e-02) (212, 4.41985167562961578369e-02) (213, -1.04531593620777130127e-01) (214, 6.50168582797050476074e-02) (215, -3.89553457498550415039e-02) (216, -7.86899253726005554199e-02) (217, 1.50000000000000000000e+03) (218, 1.50000000000000000000e+03) (219, 1.50000000000000000000e+03) (220, 1.50000000000000000000e+03) (221, 3.60551208257675170898e-01) (222, 5.70127740502357482910e-02) (223, -2.07373723387718200684e-02) (224, 5.49026168882846832275e-02) (225, -7.37459436058998107910e-02) (226, -8.24316889047622680664e-02) (227, 2.02812589704990386963e-02) (228, -6.56224042177200317383e-02) (229, -1.46312806755304336548e-02) (230, 3.19897755980491638184e-02) (231, 2.91125327348709106445e-02) (232, -3.83631233125925064087e-03) (233, -7.24464356899261474609e-02) (234, -7.04196542501449584961e-02) (235, 2.14049685746431350708e-02) (236, 2.89598256349563598633e-02) (237, 1.50000000000000000000e+03) (238, 1.50000000000000000000e+03) (239, 1.50000000000000000000e+03) (240, 1.50000000000000000000e+03) (241, 1.50000000000000000000e+03) (242, -6.70500891283154487610e-03) (243, 1.30802303552627563477e-01) (244, 5.46290241181850433350e-02) (245, -1.76463335752487182617e-01) (246, -1.91277176141738891602e-01) (247, -1.58156350255012512207e-01) (248, -4.29807364940643310547e-01) (249, -3.46694439649581909180e-01) (250, 2.03250311315059661865e-02) (251, -1.74282640218734741211e-02) (252, 4.83997575938701629639e-02) (253, -2.69879177212715148926e-02) (254, 5.48978447914123535156e-02) (255, 2.08479061722755432129e-01) (256, 5.30570037662982940674e-02) (257, 1.50000000000000000000e+03) (258, 1.50000000000000000000e+03) (259, 1.50000000000000000000e+03) (260, 1.50000000000000000000e+03) (261, 1.50000000000000000000e+03) (262, 1.34488701820373535156e-01) (263, 1.49371117353439331055e-01) (264, 2.10888008587062358856e-03) (265, -1.36505514383316040039e-01) (266, -9.90267917513847351074e-02) (267, -6.74460157752037048340e-02) (268, -9.10170003771781921387e-03) (269, -1.76929205656051635742e-01) (270, 5.33965416252613067627e-02) (271, -8.18567872047424316406e-02) (272, -8.19340497255325317383e-02) (273, 1.35690132156014442444e-02) (274, -2.95848771929740905762e-02) (275, 3.15843895077705383301e-02) (276, -2.75205463171005249023e-01) (277, 1.04678988456726074219e-01) (278, 1.50000000000000000000e+03) (279, 1.50000000000000000000e+03) (280, 1.50000000000000000000e+03) (281, 1.50000000000000000000e+03) (282, -7.44764367118477821350e-03) (283, 5.03314912319183349609e-01) (284, 4.45428609848022460938e-01) (285, 2.59756594896316528320e-01) (286, -1.52688205242156982422e-01) (287, 1.02430414408445358276e-02) (288, 2.52691772766411304474e-03) (289, -3.72619032859802246094e-02) (290, 3.02010327577590942383e-02) (291, -1.68177843093872070312e-01) (292, 4.73348125815391540527e-02) (293, 1.60226523876190185547e-01) (294, 9.94911640882492065430e-02) (295, -1.32347241044044494629e-01) (296, -1.91971257328987121582e-01) (297, 1.31937295198440551758e-01) (298, 1.04728311300277709961e-01) (299, 1.50000000000000000000e+03) (300, 1.50000000000000000000e+03) (301, 1.50000000000000000000e+03) (302, 1.50000000000000000000e+03) (303, 4.32740449905395507812e-01) (304, 3.93706828355789184570e-01) (305, -1.36892229318618774414e-01) (306, 8.56093987822532653809e-02) (307, 5.57099170982837677002e-02) (308, -3.18603813648223876953e-02) (309, -1.25483930110931396484e-01) (310, 2.01629810035228729248e-02) (311, -2.20890082418918609619e-02) (312, 3.60195674002170562744e-02) (313, 3.95015291869640350342e-02) (314, -3.18137891590595245361e-02) (315, -1.41119033098220825195e-01) (316, -1.41614258289337158203e-01) (317, 2.58510410785675048828e-02) (318, 7.88620263338088989258e-02) (319, 1.50000000000000000000e+03) (320, 1.50000000000000000000e+03) (321, 1.50000000000000000000e+03) (322, 1.50000000000000000000e+03) (323, -1.19001410901546478271e-01) (324, -1.26086473464965820312e-01) (325, 9.55845490097999572754e-02) (326, -1.37586798518896102905e-02) (327, -5.96556849777698516846e-02) (328, 5.14952056109905242920e-02) (329, 4.21073287725448608398e-03) (330, 1.24461561441421508789e-01) (331, 1.57232329249382019043e-01) (332, 7.33994618058204650879e-02) (333, -1.25467225909233093262e-01) (334, -5.56081794202327728271e-02) (335, 6.61258921027183532715e-02) (336, 2.20340806990861892700e-02) (337, 7.82999396324157714844e-02) (338, 1.50000000000000000000e+03) (339, 1.50000000000000000000e+03) (340, 1.50000000000000000000e+03) (341, 1.50000000000000000000e+03) (342, 1.50000000000000000000e+03) (343, 9.92393679916858673096e-03) (344, 1.24363645911216735840e-01) (345, 3.62454317510128021240e-02) (346, -1.46974876523017883301e-01) (347, -7.56456106901168823242e-02) (348, 6.25607073307037353516e-02) (349, -9.13168862462043762207e-02) (350, 1.64295628666877746582e-01) (351, 5.43770678341388702393e-02) (352, -1.18944957852363586426e-01) (353, -1.69735148549079895020e-01) (354, -2.00901687145233154297e-01) (355, -1.40620231628417968750e-01) (356, -2.38969862461090087891e-01) (357, -4.10360008478164672852e-01) (358, -4.00493413209915161133e-01) (359, 1.50000000000000000000e+03) (360, 1.50000000000000000000e+03) (361, 1.50000000000000000000e+03) (362, 1.50000000000000000000e+03) (363, 1.50000000000000000000e+03) (364, -1.37668892741203308105e-01) (365, 1.34343907237052917480e-01) (366, 4.88343723118305206299e-02) (367, 7.18104615807533264160e-02) (368, 1.35584492236375808716e-02) (369, 8.50600078701972961426e-02) (370, 5.67706786096096038818e-02) (371, 9.92424339056015014648e-02) (372, 1.24593295156955718994e-01) (373, -1.03624314069747924805e-01) (374, -3.54288637638092041016e-01) (375, -3.04885298013687133789e-01) (376, 1.96195498108863830566e-01) (377, 1.50000000000000000000e+03) (378, 1.50000000000000000000e+03) (379, 1.50000000000000000000e+03) (380, 1.50000000000000000000e+03) (381, 1.50000000000000000000e+03) (382, 1.50000000000000000000e+03) (383, 1.50000000000000000000e+03) (384, -1.48100256919860839844e-01) (385, -8.59626159071922302246e-02) (386, -4.52802293002605438232e-02) (387, -1.41717553138732910156e-01) (388, -1.11902005970478057861e-01) (389, -1.16737380623817443848e-01) (390, -2.54997499287128448486e-02) (391, 2.04363204538822174072e-02) (392, 2.49949153512716293335e-02) (393, -1.47547498345375061035e-01) (394, 1.50000000000000000000e+03) (395, 1.50000000000000000000e+03) (396, 1.50000000000000000000e+03) (397, 1.50000000000000000000e+03) (398, 1.50000000000000000000e+03) (399, 1.50000000000000000000e+03) (400, 7.38981068134307861328e-02) (0, 1.50000000000000000000e+03) (1, 1.50000000000000000000e+03) (2, 1.50000000000000000000e+03) (3, 1.50000000000000000000e+03) (4, 1.50000000000000000000e+03) (5, 1.50000000000000000000e+03) (6, 1.50000000000000000000e+03) (7, 1.50000000000000000000e+03) (8, 1.50000000000000000000e+03) (9, 1.50000000000000000000e+03) (10, -3.48564624786376953125e-01) (11, -4.77039426565170288086e-01) (12, 6.11985474824905395508e-03) (13, 3.13814818859100341797e-01) (14, 1.50000000000000000000e+03) (15, 1.50000000000000000000e+03) (16, 1.50000000000000000000e+03) (17, 1.50000000000000000000e+03) (18, 1.50000000000000000000e+03) (19, 1.50000000000000000000e+03) (20, 1.50000000000000000000e+03) (21, 1.50000000000000000000e+03) (22, 1.50000000000000000000e+03) (23, 2.12311685085296630859e-01) (24, 1.02006077766418457031e-01) (25, -9.45250913500785827637e-02) (26, -1.88226521015167236328e-01) (27, -1.47547376155853271484e+00) (28, -1.03810340166091918945e-01) (29, -9.40210893750190734863e-02) (30, -2.72008836269378662109e-01) (31, -2.12099045515060424805e-01) (32, -4.63248789310455322266e-01) (33, -3.85023653507232666016e-01) (34, -1.00268647074699401855e-01) (35, 1.50000000000000000000e+03) (36, 1.50000000000000000000e+03) (37, 1.50000000000000000000e+03) (38, 1.50000000000000000000e+03) (39, 1.50000000000000000000e+03) (40, 1.50000000000000000000e+03) (41, 1.50000000000000000000e+03) (42, 1.95305064320564270020e-01) (43, -2.07047045230865478516e-01) (44, -5.10777950286865234375e-01) (45, 2.68951058387756347656e-01) (46, -4.40158955752849578857e-02) (47, -3.02392262965440750122e-02) (48, 2.67441004514694213867e-01) (49, -1.50055810809135437012e-01) (50, -3.88409823179244995117e-01) (51, -4.15469437837600708008e-01) (52, -2.00877651572227478027e-01) (53, -4.54112708568572998047e-01) (54, 1.88326925039291381836e-01) (55, 5.00031709671020507812e-01) (56, 5.82955718040466308594e-01) (57, 3.53086709976196289062e-01) (58, 1.50000000000000000000e+03) (59, 1.50000000000000000000e+03) (60, 1.50000000000000000000e+03) (61, 1.14854961633682250977e-01) (62, 1.97215244174003601074e-01) (63, 4.41353797912597656250e-01) (64, -2.78758347034454345703e-01) (65, -1.29265099763870239258e-01) (66, -1.75146088004112243652e-01) (67, -2.12377291172742843628e-02) (68, -2.27830588817596435547e-01) (69, 2.31549039483070373535e-01) (70, -9.74086637143045663834e-04) (71, -2.19164475798606872559e-01) (72, 2.41260789334774017334e-02) (73, -1.26428544521331787109e-01) (74, 7.39658325910568237305e-02) (75, -1.04921288788318634033e-01) (76, 1.29430666565895080566e-01) (77, 5.48315942287445068359e-01) (78, 1.50000000000000000000e+03) (79, 1.50000000000000000000e+03) (80, 1.50000000000000000000e+03) (81, 1.05768203735351562500e-01) (82, 1.83359280228614807129e-01) (83, -4.21151787042617797852e-01) (84, -4.55368608236312866211e-01) (85, 3.65807302296161651611e-02) (86, -1.58609837293624877930e-01) (87, 1.82680457830429077148e-01) (88, 3.92859816551208496094e-01) (89, 2.66937017440795898438e-01) (90, -8.62596705555915832520e-02) (91, -3.07330906391143798828e-01) (92, -2.12104842066764831543e-01) (93, -1.70139148831367492676e-01) (94, 2.21205666661262512207e-01) (95, -3.38209748268127441406e-01) (96, -1.16548404097557067871e-01) (97, 1.50000000000000000000e+03) (98, 1.50000000000000000000e+03) (99, 1.50000000000000000000e+03) (100, 1.50000000000000000000e+03) (101, 2.46909737586975097656e-01) (102, 1.50000000000000000000e+03) (103, 2.22365707159042358398e-01) (104, -3.24261486530303955078e-01) (105, -2.98472970724105834961e-01) (106, 2.39721998572349548340e-01) (107, 3.56688380241394042969e-01) (108, 5.05940973758697509766e-01) (109, 5.01892626285552978516e-01) (110, -2.57967084646224975586e-01) (111, -2.38461211323738098145e-01) (112, -3.91545951366424560547e-01) (113, -1.63826197385787963867e-01) (114, -2.99334209412336349487e-02) (115, -2.21582189202308654785e-01) (116, 1.40602695941925048828e+00) (117, 1.50000000000000000000e+03) (118, 1.50000000000000000000e+03) (119, 1.50000000000000000000e+03) (120, 1.50000000000000000000e+03) (121, 2.48723983764648437500e-01) (122, -2.11010351777076721191e-01) (123, -4.40870225429534912109e-01) (124, -1.39635264873504638672e-01) (125, 3.47728371620178222656e-01) (126, 3.04751724004745483398e-01) (127, 5.96626698970794677734e-01) (128, 6.75503075122833251953e-01) (129, -9.17643681168556213379e-02) (130, -2.20276370644569396973e-01) (131, -1.60312011837959289551e-01) (132, -4.27494287490844726562e-01) (133, -1.93625763058662414551e-01) (134, 7.37724155187606811523e-02) (135, -2.05769315361976623535e-01) (136, -1.25637280941009521484e+00) (137, 1.50000000000000000000e+03) (138, 1.50000000000000000000e+03) (139, 1.50000000000000000000e+03) (140, 1.50000000000000000000e+03) (141, 9.85318422317504882812e-02) (142, 2.53039211034774780273e-01) (143, -9.03394222259521484375e-02) (144, 2.92065769433975219727e-01) (145, 3.59614789485931396484e-01) (146, 2.25212931632995605469e-01) (147, 5.48702538013458251953e-01) (148, 6.58098042011260986328e-01) (149, -3.09693515300750732422e-01) (150, -1.42152473330497741699e-01) (151, -2.18223139643669128418e-01) (152, -1.45028457045555114746e-01) (153, -1.88228979706764221191e-01) (154, -1.45939916372299194336e-01) (155, -2.03178346157073974609e-01) (156, -9.42886024713516235352e-02) (157, 1.50000000000000000000e+03) (158, 1.50000000000000000000e+03) (159, 1.50000000000000000000e+03) (160, 1.50000000000000000000e+03) (161, 1.36151015758514404297e-01) (162, 1.34117394685745239258e-01) (163, -2.64399070292711257935e-02) (164, 3.03280889987945556641e-01) (165, 1.29301220178604125977e-01) (166, 4.93338078260421752930e-01) (167, 2.71404922008514404297e-01) (168, 6.73223584890365600586e-02) (169, -8.79935696721076965332e-02) (170, -7.44137689471244812012e-02) (171, 7.74360597133636474609e-02) (172, -9.37120541930198669434e-02) (173, 3.47221828997135162354e-02) (174, 4.82171140611171722412e-02) (175, -3.53704169392585754395e-02) (176, -2.14266225695610046387e-01) (177, 1.50000000000000000000e+03) (178, 1.50000000000000000000e+03) (179, 1.50000000000000000000e+03) (180, 1.50000000000000000000e+03) (181, 1.50000000000000000000e+03) (182, 5.17010867595672607422e-01) (183, -3.49832326173782348633e-01) (184, 3.22829097509384155273e-01) (185, 2.81996876001358032227e-01) (186, 3.42787206172943115234e-01) (187, 6.33464977145195007324e-02) (188, -4.16914820671081542969e-01) (189, 3.79541330039501190186e-02) (190, -1.89160332083702087402e-01) (191, -3.60089749097824096680e-01) (192, -1.02552711963653564453e-01) (193, -1.80207550525665283203e-01) (194, -2.35425725579261779785e-01) (195, -3.34066510200500488281e-01) (196, 1.38602018356323242188e-01) (197, 6.08873546123504638672e-01) (198, 2.79712885618209838867e-01) (199, 1.50000000000000000000e+03) (200, 1.50000000000000000000e+03) (201, 1.50000000000000000000e+03) (202, -2.33004286885261535645e-01) (203, 2.36295238137245178223e-01) (204, 3.35456728935241699219e-01) (205, 1.56971767544746398926e-01) (206, 3.51823627948760986328e-01) (207, 3.12955409288406372070e-01) (208, 3.08486849069595336914e-01) (209, -1.48597046732902526855e-01) (210, -2.42336139082908630371e-01) (211, 8.02114158868789672852e-02) (212, -3.36988717317581176758e-01) (213, -1.50160610675811767578e-01) (214, -1.81913718581199645996e-01) (215, -1.46600589156150817871e-01) (216, 3.53700459003448486328e-01) (217, 1.50000000000000000000e+03) (218, 1.50000000000000000000e+03) (219, 1.50000000000000000000e+03) (220, 1.50000000000000000000e+03) (221, 1.02850519120693206787e-01) (222, -4.37390118837356567383e-01) (223, -4.19849669560790061951e-03) (224, 3.12456876039505004883e-01) (225, 3.05656224489212036133e-01) (226, 1.33628785610198974609e-01) (227, 2.77506679296493530273e-01) (228, 2.63304710388183593750e-01) (229, 4.18569773435592651367e-01) (230, 3.18685531616210937500e-01) (231, 3.01846891641616821289e-01) (232, 3.37594479322433471680e-01) (233, 5.74118733406066894531e-01) (234, 3.36356878280639648438e-01) (235, -2.31431618332862854004e-01) (236, -1.35959506034851074219e-01) (237, 1.50000000000000000000e+03) (238, 1.50000000000000000000e+03) (239, 1.50000000000000000000e+03) (240, 1.50000000000000000000e+03) (241, 1.50000000000000000000e+03) (242, -3.31390708684921264648e-01) (243, 2.51281499862670898438e-01) (244, 2.04405918717384338379e-01) (245, 3.08755904436111450195e-01) (246, 4.57533419132232666016e-01) (247, 3.16788315773010253906e-01) (248, 2.20449626445770263672e-01) (249, 6.86031341552734375000e-01) (250, 3.54420334100723266602e-01) (251, 9.42729413509368896484e-02) (252, 5.51193296909332275391e-01) (253, 5.89269161224365234375e-01) (254, -1.22293040156364440918e-01) (255, -2.50600337982177734375e-01) (256, 1.05731748044490814209e-02) (257, 1.50000000000000000000e+03) (258, 1.50000000000000000000e+03) (259, 1.50000000000000000000e+03) (260, 1.50000000000000000000e+03) (261, 1.50000000000000000000e+03) (262, 2.31754094362258911133e-01) (263, 2.64079660177230834961e-01) (264, 4.00169968605041503906e-01) (265, 5.44141352176666259766e-01) (266, 2.54593431949615478516e-01) (267, 3.32571327686309814453e-01) (268, 1.53927400708198547363e-01) (269, 2.60144084692001342773e-01) (270, 2.86309033632278442383e-01) (271, 4.49516117572784423828e-01) (272, 3.99473607540130615234e-01) (273, 3.69747072458267211914e-01) (274, 6.99584007263183593750e-01) (275, 1.19351260364055633545e-01) (276, -4.61333215236663818359e-01) (277, 3.09579044580459594727e-01) (278, 1.50000000000000000000e+03) (279, 1.50000000000000000000e+03) (280, 1.50000000000000000000e+03) (281, 1.50000000000000000000e+03) (282, 5.60761570930480957031e-01) (283, 5.20485401153564453125e-01) (284, 9.61670577526092529297e-01) (285, 4.03076529502868652344e-01) (286, 2.39468544721603393555e-01) (287, 5.55965006351470947266e-01) (288, 5.77505886554718017578e-01) (289, 5.72094678878784179688e-01) (290, -8.21714475750923156738e-02) (291, 4.07143354415893554688e-01) (292, -2.67533272504806518555e-01) (293, -9.55293551087379455566e-02) (294, 4.52980436384677886963e-02) (295, 2.84769803285598754883e-01) (296, -1.35173082351684570312e+00) (297, 2.26041510701179504395e-01) (298, 2.13364750146865844727e-01) (299, 1.50000000000000000000e+03) (300, 1.50000000000000000000e+03) (301, 1.50000000000000000000e+03) (302, 1.50000000000000000000e+03) (303, 1.21902115643024444580e-01) (304, 1.94173336029052734375e-01) (305, 3.72066557407379150391e-01) (306, 2.75920033454895019531e-01) (307, 2.46760174632072448730e-01) (308, 3.30259740352630615234e-01) (309, 3.46867591142654418945e-01) (310, -2.02206462621688842773e-01) (311, -1.52243047952651977539e-01) (312, -3.40591408312320709229e-02) (313, -1.43756866455078125000e-01) (314, -4.26654905080795288086e-01) (315, -1.05710732936859130859e+00) (316, -7.85939335823059082031e-01) (317, 1.97465166449546813965e-01) (318, 1.98175236582756042480e-01) (319, 1.50000000000000000000e+03) (320, 1.50000000000000000000e+03) (321, 1.50000000000000000000e+03) (322, 1.50000000000000000000e+03) (323, -1.04309773445129394531e+00) (324, -6.49829357862472534180e-02) (325, 3.29189538955688476562e-01) (326, -2.95518726110458374023e-01) (327, -2.30111971497535705566e-01) (328, 1.16524957120418548584e-01) (329, -1.07422888278961181641e-01) (330, -3.59685063362121582031e-01) (331, -2.77192741632461547852e-01) (332, -1.54286921024322509766e-01) (333, -3.53555291891098022461e-01) (334, -5.04899024963378906250e-01) (335, -1.40889513492584228516e+00) (336, 2.01433628797531127930e-01) (337, 2.48037621378898620605e-01) (338, 1.50000000000000000000e+03) (339, 1.50000000000000000000e+03) (340, 1.50000000000000000000e+03) (341, 1.50000000000000000000e+03) (342, 1.50000000000000000000e+03) (343, 1.33496001362800598145e-01) (344, -4.16857236996293067932e-03) (345, 1.76794499158859252930e-01) (346, -1.68142855167388916016e-01) (347, -4.52417969703674316406e-01) (348, -4.66376751661300659180e-01) (349, -4.51465368270874023438e-01) (350, -3.77700537443161010742e-01) (351, -4.13027256727218627930e-01) (352, -3.70048373937606811523e-01) (353, -1.70587107539176940918e-01) (354, -5.89961111545562744141e-01) (355, -7.28669583797454833984e-01) (356, -7.02141284942626953125e-01) (357, -2.31644660234451293945e-01) (358, -2.52921223640441894531e-01) (359, 1.50000000000000000000e+03) (360, 1.50000000000000000000e+03) (361, 1.50000000000000000000e+03) (362, 1.50000000000000000000e+03) (363, 1.50000000000000000000e+03) (364, -3.36200654506683349609e-01) (365, -6.60863757133483886719e-01) (366, -3.83998215198516845703e-01) (367, -4.95811283588409423828e-01) (368, -2.87409812211990356445e-01) (369, -5.12832224369049072266e-01) (370, -3.30037146806716918945e-01) (371, -7.90040940046310424805e-02) (372, -2.42806285619735717773e-01) (373, -6.50997385382652282715e-02) (374, -3.13182443380355834961e-01) (375, 1.40202976763248443604e-03) (376, 8.14702212810516357422e-02) (377, 1.50000000000000000000e+03) (378, 1.50000000000000000000e+03) (379, 1.50000000000000000000e+03) (380, 1.50000000000000000000e+03) (381, 1.50000000000000000000e+03) (382, 1.50000000000000000000e+03) (383, 1.50000000000000000000e+03) (384, -4.15185481309890747070e-01) (385, -4.98087525367736816406e-01) (386, -3.75862389802932739258e-01) (387, -4.25230294466018676758e-01) (388, 3.45423333346843719482e-02) (389, -5.76726853847503662109e-01) (390, -7.34670996665954589844e-01) (391, -4.22051191329956054688e-01) (392, -5.25315046310424804688e-01) (393, -1.65807509422302246094e+00) (394, 1.50000000000000000000e+03) (395, 1.50000000000000000000e+03) (396, 1.50000000000000000000e+03) (397, 1.50000000000000000000e+03) (398, 1.50000000000000000000e+03) (399, 1.50000000000000000000e+03) (400, -3.34167212247848510742e-01) (0, 1.50000000000000000000e+03) (1, 1.50000000000000000000e+03) (2, 1.50000000000000000000e+03) (3, 1.50000000000000000000e+03) (4, 1.50000000000000000000e+03) (5, 1.50000000000000000000e+03) (6, 1.50000000000000000000e+03) (7, 1.50000000000000000000e+03) (8, 1.50000000000000000000e+03) (9, 1.50000000000000000000e+03) (10, 4.09637719392776489258e-01) (11, 5.16745924949645996094e-01) (12, 4.63770776987075805664e-01) (13, 3.63616317510604858398e-01) (14, 1.50000000000000000000e+03) (15, 1.50000000000000000000e+03) (16, 1.50000000000000000000e+03) (17, 1.50000000000000000000e+03) (18, 1.50000000000000000000e+03) (19, 1.50000000000000000000e+03) (20, 1.50000000000000000000e+03) (21, 1.50000000000000000000e+03) (22, 1.50000000000000000000e+03) (23, 2.28022903203964233398e-01) (24, 2.81977683305740356445e-01) (25, 4.54096376895904541016e-01) (26, 2.26864628493785858154e-02) (27, -3.58831398189067840576e-02) (28, 8.18469971418380737305e-02) (29, -8.78072679042816162109e-02) (30, 1.28095233812928199768e-02) (31, 9.92145240306854248047e-02) (32, 5.22233426570892333984e-01) (33, 4.06092524528503417969e-01) (34, 4.70622032880783081055e-01) (35, 1.50000000000000000000e+03) (36, 1.50000000000000000000e+03) (37, 1.50000000000000000000e+03) (38, 1.50000000000000000000e+03) (39, 1.50000000000000000000e+03) (40, 1.50000000000000000000e+03) (41, 1.50000000000000000000e+03) (42, 2.59079575538635253906e-01) (43, 3.80989015102386474609e-01) (44, -6.23220652341842651367e-02) (45, 2.09763133898377418518e-03) (46, -1.91977471113204956055e-02) (47, -2.57429163902997970581e-02) (48, 3.90178501605987548828e-01) (49, 4.10179346799850463867e-01) (50, 4.84951764345169067383e-01) (51, 3.73860955238342285156e-01) (52, 4.53424543142318725586e-01) (53, 5.44684946537017822266e-01) (54, 4.33557093143463134766e-01) (55, 5.19150912761688232422e-01) (56, 1.03954207897186279297e+00) (57, 8.71693611145019531250e-01) (58, 1.50000000000000000000e+03) (59, 1.50000000000000000000e+03) (60, 1.50000000000000000000e+03) (61, 3.29742282629013061523e-01) (62, 1.94784849882125854492e-01) (63, 6.14973247051239013672e-01) (64, 5.08641421794891357422e-01) (65, 5.08772373199462890625e-01) (66, 3.89449179172515869141e-01) (67, 3.77290904521942138672e-01) (68, 3.96642565727233886719e-01) (69, 4.16578412055969238281e-01) (70, 4.73899900913238525391e-01) (71, 3.68360728025436401367e-01) (72, 4.01647329330444335938e-01) (73, 3.48412096500396728516e-01) (74, 4.74362462759017944336e-01) (75, 3.86558711528778076172e-01) (76, 6.94490551948547363281e-01) (77, 1.17766594886779785156e+00) (78, 1.50000000000000000000e+03) (79, 1.50000000000000000000e+03) (80, 1.50000000000000000000e+03) (81, 3.26161056756973266602e-01) (82, -1.59966945648193359375e-01) (83, 1.32330860942602157593e-02) (84, -5.06795905530452728271e-02) (85, 7.66336731612682342529e-03) (86, 5.29792249202728271484e-01) (87, 5.18301188945770263672e-01) (88, 4.17188227176666259766e-01) (89, 3.49851250648498535156e-01) (90, 3.87551963329315185547e-01) (91, 5.34976303577423095703e-01) (92, 4.35360550880432128906e-01) (93, 4.13819104433059692383e-01) (94, 5.13722121715545654297e-01) (95, -8.75191986560821533203e-02) (96, 4.59808975458145141602e-01) (97, 1.50000000000000000000e+03) (98, 1.50000000000000000000e+03) (99, 1.50000000000000000000e+03) (100, 1.50000000000000000000e+03) (101, 1.94175690412521362305e-01) (102, 1.50000000000000000000e+03) (103, 5.67640215158462524414e-02) (104, 3.14538598060607910156e-01) (105, 3.61903756856918334961e-01) (106, 2.75716036558151245117e-01) (107, 4.16988074779510498047e-01) (108, 3.50608259439468383789e-01) (109, 5.08431673049926757812e-01) (110, 5.50685167312622070312e-01) (111, 4.42823588848114013672e-01) (112, 3.75072620809078216553e-02) (113, 1.34118944406509399414e-01) (114, 1.09429247677326202393e-01) (115, 5.39641864597797393799e-02) (116, 4.21558231115341186523e-01) (117, 1.50000000000000000000e+03) (118, 1.50000000000000000000e+03) (119, 1.50000000000000000000e+03) (120, 1.50000000000000000000e+03) (121, 3.80785137414932250977e-01) (122, 3.68288964033126831055e-01) (123, 3.78085881471633911133e-01) (124, 4.00344014167785644531e-01) (125, 4.65410590171813964844e-01) (126, 2.72895246744155883789e-01) (127, 3.10628801584243774414e-01) (128, 4.71071869134902954102e-01) (129, 4.88561928272247314453e-01) (130, 5.01934230327606201172e-01) (131, 4.49539422988891601562e-01) (132, 5.95425590872764587402e-02) (133, 5.27020990848541259766e-02) (134, 1.20492704212665557861e-01) (135, 1.14255487918853759766e-01) (136, -2.41976305842399597168e-01) (137, 1.50000000000000000000e+03) (138, 1.50000000000000000000e+03) (139, 1.50000000000000000000e+03) (140, 1.50000000000000000000e+03) (141, 2.45054990053176879883e-01) (142, 7.11033463478088378906e-01) (143, 3.48967760801315307617e-01) (144, 2.78441429138183593750e-01) (145, 3.56263071298599243164e-01) (146, 2.43615284562110900879e-01) (147, 4.56483572721481323242e-01) (148, 5.40277481079101562500e-01) (149, 4.47860538959503173828e-01) (150, 4.92752939462661743164e-01) (151, 5.52130818367004394531e-01) (152, 4.80432957410812377930e-01) (153, 2.98990249633789062500e-01) (154, -2.38528754562139511108e-02) (155, -7.49030485749244689941e-02) (156, 6.50545135140419006348e-02) (157, 1.50000000000000000000e+03) (158, 1.50000000000000000000e+03) (159, 1.50000000000000000000e+03) (160, 1.50000000000000000000e+03) (161, 2.27039843797683715820e-01) (162, 2.50643730163574218750e-01) (163, 2.57632404565811157227e-01) (164, 2.89939463138580322266e-01) (165, 2.07187414169311523438e-01) (166, 4.74306493997573852539e-01) (167, 4.00334358215332031250e-01) (168, 3.68270158767700195312e-01) (169, 3.97704720497131347656e-01) (170, 5.08303582668304443359e-01) (171, 5.44271588325500488281e-01) (172, 4.44886833429336547852e-01) (173, 4.92626309394836425781e-01) (174, 3.14229191280901432037e-03) (175, 1.08255453407764434814e-01) (176, -6.54945448040962219238e-02) (177, 1.50000000000000000000e+03) (178, 1.50000000000000000000e+03) (179, 1.50000000000000000000e+03) (180, 1.50000000000000000000e+03) (181, 1.50000000000000000000e+03) (182, 2.75523066520690917969e-01) (183, 6.71700179576873779297e-01) (184, 3.31891655921936035156e-01) (185, 2.00225189328193664551e-01) (186, 2.98932284116744995117e-01) (187, 4.33952987194061279297e-01) (188, 3.60786020755767822266e-01) (189, 3.84473472833633422852e-01) (190, 3.67538362741470336914e-01) (191, 4.50124025344848632812e-01) (192, 4.16086256504058837891e-01) (193, 3.85073661804199218750e-01) (194, 4.10884618759155273438e-01) (195, 4.88285154104232788086e-01) (196, 4.71646189689636230469e-01) (197, 4.11380559206008911133e-01) (198, 2.17960059642791748047e-01) (199, 1.50000000000000000000e+03) (200, 1.50000000000000000000e+03) (201, 1.50000000000000000000e+03) (202, 2.59368538856506347656e-01) (203, 2.63557583093643188477e-01) (204, 3.33433061838150024414e-01) (205, 1.48136422038078308105e-01) (206, 1.99223414063453674316e-01) (207, 4.46482181549072265625e-01) (208, 3.11732620000839233398e-01) (209, 4.09736961126327514648e-01) (210, 4.80502724647521972656e-01) (211, 3.37377250194549560547e-01) (212, 3.51418614387512207031e-01) (213, 3.42910170555114746094e-01) (214, 3.94228368997573852539e-01) (215, 4.90487396717071533203e-01) (216, 4.96349453926086425781e-01) (217, 1.50000000000000000000e+03) (218, 1.50000000000000000000e+03) (219, 1.50000000000000000000e+03) (220, 1.50000000000000000000e+03) (221, 4.85754042863845825195e-01) (222, 1.95828616619110107422e-01) (223, 2.47498854994773864746e-01) (224, 3.35096240043640136719e-01) (225, 3.25604528188705444336e-01) (226, 3.60927730798721313477e-01) (227, 4.48260158300399780273e-01) (228, 3.62597942352294921875e-01) (229, 3.38931947946548461914e-01) (230, 1.99354484677314758301e-01) (231, 2.96706855297088623047e-01) (232, 3.56033295392990112305e-01) (233, 4.12630110979080200195e-01) (234, 4.68517661094665527344e-01) (235, 2.73656934499740600586e-01) (236, 6.01624906063079833984e-01) (237, 1.50000000000000000000e+03) (238, 1.50000000000000000000e+03) (239, 1.50000000000000000000e+03) (240, 1.50000000000000000000e+03) (241, 1.50000000000000000000e+03) (242, 3.61093431711196899414e-01) (243, 3.27093690633773803711e-01) (244, 2.76168048381805419922e-01) (245, 3.58303934335708618164e-01) (246, 1.42048448324203491211e-01) (247, 3.15232515335083007812e-01) (248, 3.34929004311561584473e-02) (249, 2.35195294022560119629e-01) (250, 4.09976422786712646484e-01) (251, 3.77243369817733764648e-01) (252, 3.95571023225784301758e-01) (253, 4.03316438198089599609e-01) (254, 4.97829765081405639648e-01) (255, 4.65552568435668945312e-01) (256, 5.65361380577087402344e-01) (257, 1.50000000000000000000e+03) (258, 1.50000000000000000000e+03) (259, 1.50000000000000000000e+03) (260, 1.50000000000000000000e+03) (261, 1.50000000000000000000e+03) (262, 3.95413637161254882812e-01) (263, 2.50242024660110473633e-01) (264, 3.03749293088912963867e-01) (265, 4.42997187376022338867e-01) (266, 3.04161787033081054688e-01) (267, 3.14060986042022705078e-01) (268, 3.50759148597717285156e-01) (269, 2.38475784659385681152e-01) (270, 2.89639651775360107422e-01) (271, 2.96017318964004516602e-01) (272, 4.02690112590789794922e-01) (273, 6.26240074634552001953e-01) (274, 5.89407742023468017578e-01) (275, 4.66982901096343994141e-01) (276, 3.35125505924224853516e-01) (277, 3.69418501853942871094e-01) (278, 1.50000000000000000000e+03) (279, 1.50000000000000000000e+03) (280, 1.50000000000000000000e+03) (281, 1.50000000000000000000e+03) (282, 4.04512166976928710938e-01) (283, 3.41041028499603271484e-01) (284, 2.81727612018585205078e-01) (285, 3.90115410089492797852e-01) (286, 1.76061272621154785156e-01) (287, 6.52733564376831054688e-01) (288, 4.29441988468170166016e-01) (289, 4.58333522081375122070e-01) (290, 4.37266558408737182617e-01) (291, 4.19681072235107421875e-01) (292, 4.71947073936462402344e-01) (293, 4.41090226173400878906e-01) (294, 4.20344054698944091797e-01) (295, 4.55811083316802978516e-01) (296, -1.53999567031860351562e-01) (297, 3.87946188449859619141e-01) (298, 2.52317577600479125977e-01) (299, 1.50000000000000000000e+03) (300, 1.50000000000000000000e+03) (301, 1.50000000000000000000e+03) (302, 1.50000000000000000000e+03) (303, 3.80501568317413330078e-01) (304, 4.11021977663040161133e-01) (305, 4.64118540287017822266e-01) (306, 2.92581409215927124023e-01) (307, 3.90820950269699096680e-01) (308, 5.44439733028411865234e-01) (309, 4.24313277006149291992e-01) (310, 4.22639846801757812500e-01) (311, 3.64178955554962158203e-01) (312, 3.97858589887619018555e-01) (313, 3.46875220537185668945e-01) (314, -1.38234943151473999023e-01) (315, -9.68737080693244934082e-02) (316, -2.43443474173545837402e-01) (317, 2.74635404348373413086e-01) (318, 3.40917587280273437500e-01) (319, 1.50000000000000000000e+03) (320, 1.50000000000000000000e+03) (321, 1.50000000000000000000e+03) (322, 1.50000000000000000000e+03) (323, 4.02636855840682983398e-01) (324, 2.61429488658905029297e-01) (325, 4.12626981735229492188e-01) (326, 4.76736009120941162109e-01) (327, 4.31927829980850219727e-01) (328, 3.90163958072662353516e-01) (329, 3.14010351896286010742e-01) (330, 4.68837261199951171875e-01) (331, 4.44210737943649291992e-01) (332, 4.39132899045944213867e-01) (333, -1.06701016426086425781e-01) (334, -3.00881545990705490112e-02) (335, -1.17680363357067108154e-01) (336, 2.73716509342193603516e-01) (337, 4.00855243206024169922e-01) (338, 1.50000000000000000000e+03) (339, 1.50000000000000000000e+03) (340, 1.50000000000000000000e+03) (341, 1.50000000000000000000e+03) (342, 1.50000000000000000000e+03) (343, 6.28400743007659912109e-01) (344, 3.57586503028869628906e-01) (345, 4.41484093666076660156e-01) (346, 3.11732500791549682617e-01) (347, -1.37129006907343864441e-02) (348, -1.00802883505821228027e-01) (349, -1.08954776078462600708e-02) (350, 4.81697142124176025391e-01) (351, 3.57327312231063842773e-01) (352, -1.14827297627925872803e-01) (353, 1.40039503574371337891e-01) (354, -9.16505977511405944824e-02) (355, -1.71852603554725646973e-01) (356, -2.52978056669235229492e-01) (357, -3.25069397687911987305e-01) (358, -1.76837131381034851074e-01) (359, 1.50000000000000000000e+03) (360, 1.50000000000000000000e+03) (361, 1.50000000000000000000e+03) (362, 1.50000000000000000000e+03) (363, 1.50000000000000000000e+03) (364, -1.30312755703926086426e-01) (365, 4.40547168254852294922e-01) (366, 3.34129989147186279297e-01) (367, -1.10778555274009704590e-01) (368, 5.88143289089202880859e-01) (369, 3.71863067150115966797e-01) (370, 6.37625753879547119141e-01) (371, 2.65585742890834808350e-02) (372, -4.81120422482490539551e-02) (373, -9.08928574062883853912e-04) (374,